{"learner":{"attributes":{"best_iteration":"93","best_score":"0.5632863265707304","scikit_learn":"{\"_estimator_type\": \"classifier\"}"},"feature_names":["gender","NationalITy","StageID","GradeID","SectionID","Topic","Semester","Relation","raisedhands","VisITedResources","AnnouncementsView","Discussion","ParentAnsweringSurvey","ParentschoolSatisfaction","StudentAbsenceDays"],"feature_types":["int","int","int","int","int","int","int","int","int","int","int","int","int","int","int"],"gradient_booster":{"model":{"gbtree_model_param":{"num_parallel_tree":"1","num_trees":"300"},"iteration_indptr":[0,3,6,9,12,15,18,21,24,27,30,33,36,39,42,45,48,51,54,57,60,63,66,69,72,75,78,81,84,87,90,93,96,99,102,105,108,111,114,117,120,123,126,129,132,135,138,141,144,147,150,153,156,159,162,165,168,171,174,177,180,183,186,189,192,195,198,201,204,207,210,213,216,219,222,225,228,231,234,237,240,243,246,249,252,255,258,261,264,267,270,273,276,279,282,285,288,291,294,297,300],"tree_info":[0,1,2,0,1,2,0,1,2,0,1,2,0,1,2,0,1,2,0,1,2,0,1,2,0,1,2,0,1,2,0,1,2,0,1,2,0,1,2,0,1,2,0,1,2,0,1,2,0,1,2,0,1,2,0,1,2,0,1,2,0,1,2,0,1,2,0,1,2,0,1,2,0,1,2,0,1,2,0,1,2,0,1,2,0,1,2,0,1,2,0,1,2,0,1,2,0,1,2,0,1,2,0,1,2,0,1,2,0,1,2,0,1,2,0,1,2,0,1,2,0,1,2,0,1,2,0,1,2,0,1,2,0,1,2,0,1,2,0,1,2,0,1,2,0,1,2,0,1,2,0,1,2,0,1,2,0,1,2,0,1,2,0,1,2,0,1,2,0,1,2,0,1,2,0,1,2,0,1,2,0,1,2,0,1,2,0,1,2,0,1,2,0,1,2,0,1,2,0,1,2,0,1,2,0,1,2,0,1,2,0,1,2,0,1,2,0,1,2,0,1,2,0,1,2,0,1,2,0,1,2,0,1,2,0,1,2,0,1,2,0,1,2,0,1,2,0,1,2,0,1,2,0,1,2,0,1,2,0,1,2,0,1,2,0,1,2,0,1,2,0,1,2,0,1,2,0,1,2,0,1,2,0,1,2,0,1,2,0,1,2,0,1,2,0,1,2,0,1,2],"trees":[{"base_weights":[-0E0,-6.4063084E-1,7.8771955E-1,-0E0,-6.618769E-2,1.0829357E0,-8.415616E-2,1.1667665E-1,-0E0,-0E0,-2.378293E-1,-0E0,-2.8656501E-2],"categories":[],"categories_nodes":[],"categories_segments":[],"categories_sizes":[],"default_left":[0,0,0,0,0,0,0,0,0,0,0,0,0],"id":0,"left_children":[1,3,5,-1,-1,7,9,-1,-1,-1,11,-1,-1],"loss_changes":[5.0509922E1,8.753319E-1,1.3518423E1,0E0,0E0,3.5365372E0,4.5437527E-1,0E0,0E0,0E0,8.589214E-2,0E0,0E0],"parents":[2147483647,0,0,1,1,2,2,5,5,6,6,10,10],"right_children":[2,4,6,-1,-1,8,10,-1,-1,-1,12,-1,-1],"split_conditions":[1E0,4E0,4E1,-0E0,-6.618769E-2,6.2E1,4.1E1,1.1667665E-1,-0E0,-0E0,5.1E1,-0E0,-2.8656501E-2],"split_indices":[14,9,8,0,0,9,9,0,0,0,8,0,0],"split_type":[0,0,0,0,0,0,0,0,0,0,0,0,0],"sum_hessian":[9.652165E1,5.4469776E1,4.2051876E1,1.5690382E0,5.2900738E1,3.2766823E1,9.285054E0,3.0548212E1,2.2186108E0,1.838931E0,7.4461236E0,1.8938243E0,5.552299E0],"tree_param":{"num_deleted":"0","num_feature":"15","num_nodes":"13","size_leaf_vector":"1"}},{"base_weights":[1.897487E-2,-2.9319203E-1,1.6859525E-1,4.7457524E-2,-4.5726195E-2,2.9044083E-1,-8.7097876E-2,9.4865546E-2,-0E0,-0E0,4.7193205E-1,-0E0,-2.2780384E-1,-0E0,1.2028298E-2,-6.348545E-2,6.764334E-2,5.1748985E-1,-0E0,-0E0,1.2432533E-2,-2.894566E-2,-0E0,-0E0,-1.1720774E-2,-0E0,2.0406011E-2,5.819104E-2,-0E0,1.4276523E-3,-0E0],"categories":[],"categories_nodes":[],"categories_segments":[],"categories_sizes":[],"default_left":[0,0,0,0,0,0,0,0,0,0,0,0,0,0,0,0,0,0,0,0,0,0,0,0,0,0,0,0,0,0,0],"id":1,"left_children":[1,3,5,7,-1,9,11,13,-1,15,17,19,21,-1,-1,23,25,27,29,-1,-1,-1,-1,-1,-1,-1,-1,-1,-1,-1,-1],"loss_changes":[4.701755E0,2.5429661E0,2.819659E0,3.2000147E-2,0E0,2.9495997E0,6.2642336E-1,3.2681562E-3,0E0,1.1321272E-1,1.5556765E-1,8.1593215E-2,3.849749E-1,0E0,0E0,1.0472761E-1,1.7070273E-1,1.0534744E0,8.4107526E-4,0E0,0E0,0E0,0E0,0E0,0E0,0E0,0E0,0E0,0E0,0E0,0E0],"parents":[2147483647,0,0,1,1,2,2,3,3,5,5,6,6,7,7,9,9,10,10,11,11,12,12,15,15,16,16,17,17,18,18],"right_children":[2,4,6,8,-1,10,12,14,-1,16,18,20,22,-1,-1,24,26,28,30,-1,-1,-1,-1,-1,-1,-1,-1,-1,-1,-1,-1],"split_conditions":[2E1,1E0,8.8E1,3.4E1,-4.5726195E-2,1E0,1E0,1.7E1,-0E0,1E0,8.5E1,9E1,9.1E1,-0E0,1.2028298E-2,2.1E1,7.5E1,2E0,6.4E1,-0E0,1.2432533E-2,-2.894566E-2,-0E0,-0E0,-1.1720774E-2,-0E0,2.0406011E-2,5.819104E-2,-0E0,1.4276523E-3,-0E0],"split_indices":[9,14,9,11,0,2,12,11,0,6,11,9,11,0,0,9,9,2,9,0,0,0,0,0,0,0,0,0,0,0,0],"split_type":[0,0,0,0,0,0,0,0,0,0,0,0,0,0,0,0,0,0,0,0,0,0,0,0,0,0,0,0,0,0,0],"sum_hessian":[1.01884544E2,2.8058075E1,7.382648E1,5.6203713E0,2.2437702E1,5.511336E1,1.8713114E1,3.4628625E0,2.1575089E0,2.2237951E1,3.287541E1,5.614163E0,1.3098951E1,1.838931E0,1.6239315E0,1.0549456E1,1.1688495E1,2.7586033E1,5.2893767E0,2.3353682E0,3.278795E0,1.1946733E1,1.1522181E0,1.2442517E0,9.305203E0,8.084913E0,3.6035814E0,2.4509058E1,3.0769744E0,2.126577E0,3.1627998E0],"tree_param":{"num_deleted":"0","num_feature":"15","num_nodes":"31","size_leaf_vector":"1"}},{"base_weights":[-2.544507E-3,4.3798628E-1,-6.2171955E-2,-2.3226392E-2,8.7290037E-1,-3.1781575E-1,4.543805E-1,-0E0,8.965156E-2,-0E0,-3.603254E-2,-0E0,4.8720147E-2],"categories":[],"categories_nodes":[],"categories_segments":[],"categories_sizes":[],"default_left":[0,0,0,0,0,0,0,0,0,0,0,0,0],"id":2,"left_children":[1,3,-1,5,7,9,11,-1,-1,-1,-1,-1,-1],"loss_changes":[2.8602972E1,1.3494861E1,0E0,3.9774206E0,4.2963028E-1,1.5702534E-1,3.8688183E-3,0E0,0E0,0E0,0E0,0E0,0E0],"parents":[2147483647,0,0,1,1,3,3,4,4,5,5,6,6],"right_children":[2,4,-1,6,8,10,12,-1,-1,-1,-1,-1,-1],"split_conditions":[1E0,1E0,-6.2171955E-2,8E1,1.2E1,1.5E1,2.9E1,-0E0,8.965156E-2,-0E0,-3.603254E-2,-0E0,4.8720147E-2],"split_indices":[14,7,0,8,11,8,11,0,0,0,0,0,0],"split_type":[0,0,0,0,0,0,0,0,0,0,0,0,0],"sum_hessian":[9.951901E1,5.6602562E1,4.291645E1,2.6157713E1,3.0444847E1,1.918254E1,6.975172E0,1.1522181E0,2.929263E1,3.4937944E0,1.5688746E1,1.1522181E0,5.822954E0],"tree_param":{"num_deleted":"0","num_feature":"15","num_nodes":"13","size_leaf_vector":"1"}},{"base_weights":[-0E0,7.884433E-1,-4.6882308E-1,9.0882026E-2,-3.362003E-5,-0E0,-6.341889E-2,2.8706408E-1,-1.8364705E-2,4.056064E-2,-0E0],"categories":[],"categories_nodes":[],"categories_segments":[],"categories_sizes":[],"default_left":[0,0,0,0,0,0,0,0,0,0,0],"id":3,"left_children":[1,3,5,-1,-1,7,-1,9,-1,-1,-1],"loss_changes":[3.6989693E1,5.355978E0,6.1356773E0,0E0,0E0,1.1157426E0,0E0,7.1313274E-1,0E0,0E0,0E0],"parents":[2147483647,0,0,1,1,2,2,5,5,7,7],"right_children":[2,4,6,-1,-1,8,-1,10,-1,-1,-1],"split_conditions":[2.3E1,7.5E1,4.1E1,9.0882026E-2,-3.362003E-5,1E0,-6.341889E-2,3.3E1,-1.8364705E-2,4.056064E-2,-0E0],"split_indices":[8,9,9,0,0,12,0,10,0,0,0],"split_type":[0,0,0,0,0,0,0,0,0,0,0],"sum_hessian":[9.6159615E1,3.5265606E1,6.089401E1,3.2532032E1,2.733575E0,1.3267718E1,4.762629E1,8.956705E0,4.311014E0,7.822893E0,1.1338116E0],"tree_param":{"num_deleted":"0","num_feature":"15","num_nodes":"11","size_leaf_vector":"1"}},{"base_weights":[-1.1836157E-2,-4.3679953E-1,1.16686575E-1,-5.2705246E-1,-0E0,3.2345217E-1,-0E0,-0E0,-5.464534E-2,-1.3562901E-2,5.899526E-1,2.4126135E-1,-8.182501E-2,-2.0220959E-1,-0E0,-0E0,6.944681E-2,-0E0,3.4959435E-2,-2.5161824E-1,-0E0,-3.728487E-2,-0E0,-0E0,1.0073763E-2,-0E0,-4.5465566E-2,2.1612845E-2,-5.4127895E-3],"categories":[],"categories_nodes":[],"categories_segments":[],"categories_sizes":[],"default_left":[0,0,0,0,0,0,0,0,0,0,0,0,0,0,0,0,0,0,0,0,0,0,0,0,0,0,0,0,0],"id":4,"left_children":[1,3,5,7,-1,9,11,-1,-1,13,15,17,19,21,23,-1,-1,-1,-1,25,27,-1,-1,-1,-1,-1,-1,-1,-1],"loss_changes":[6.5133047E0,1.1074429E0,2.4922457E0,5.162382E-2,0E0,4.232818E0,6.79046E-1,0E0,0E0,4.2721105E-1,1.9860239E0,2.733113E-1,1.0836183E0,8.922781E-1,3.7197355E-2,0E0,0E0,0E0,0E0,1.603627E0,6.0817313E-1,0E0,0E0,0E0,0E0,0E0,0E0,0E0,0E0],"parents":[2147483647,0,0,1,1,2,2,3,3,5,5,6,6,9,9,10,10,11,11,12,12,13,13,14,14,19,19,20,20],"right_children":[2,4,6,8,-1,10,12,-1,-1,14,16,18,20,22,24,-1,-1,-1,-1,26,28,-1,-1,-1,-1,-1,-1,-1,-1],"split_conditions":[1.5E1,1E0,5.9E1,5E0,-0E0,1.7E1,1.5E1,-0E0,-5.464534E-2,4E1,1.1E1,8E0,5.8E1,1E0,3.4E1,-0E0,6.944681E-2,-0E0,3.4959435E-2,1E0,8E1,-3.728487E-2,-0E0,-0E0,1.0073763E-2,-0E0,-4.5465566E-2,2.1612845E-2,-5.4127895E-3],"split_indices":[8,0,8,11,0,10,11,0,0,8,11,11,10,12,9,0,0,0,0,12,10,0,0,0,0,0,0,0,0],"split_type":[0,0,0,0,0,0,0,0,0,0,0,0,0,0,0,0,0,0,0,0,0,0,0,0,0,0,0,0,0],"sum_hessian":[1.0366479E2,2.6571089E1,7.70937E1,2.161051E1,4.9605784E0,3.2115097E1,4.4978603E1,1.4738653E0,2.0136644E1,1.1705684E1,2.0409412E1,4.8162737E0,4.0162327E1,8.509798E0,3.1958854E0,2.1196108E0,1.8289803E1,1.3336422E0,3.4826317E0,1.9574347E1,2.0587982E1,7.5097604E0,1.0000376E0,1.5304245E0,1.6654608E0,7.208757E0,1.2365588E1,1.0245637E1,1.0342345E1],"tree_param":{"num_deleted":"0","num_feature":"15","num_nodes":"29","size_leaf_vector":"1"}},{"base_weights":[5.8189845E-3,-4.3693617E-1,5.6718653E-1,-5.7426225E-2,5.538026E-2,-0E0,6.535203E-1,-4.27311E-3,3.2132797E-2,6.758714E-1,-0E0,8.014168E-2,2.1211718E-1,-0E0,3.4991413E-2],"categories":[],"categories_nodes":[],"categories_segments":[],"categories_sizes":[],"default_left":[0,0,0,0,0,0,0,0,0,0,0,0,0,0,0],"id":5,"left_children":[1,3,5,-1,7,-1,9,-1,-1,11,-1,-1,13,-1,-1],"loss_changes":[2.8064745E1,5.195936E0,3.377081E0,0E0,8.940253E-1,0E0,6.953964E-1,0E0,0E0,2.5580788E-1,0E0,0E0,6.002773E-1,0E0,0E0],"parents":[2147483647,0,0,1,1,2,2,4,4,6,6,9,9,12,12],"right_children":[2,4,6,-1,8,-1,10,-1,-1,12,-1,-1,14,-1,-1],"split_conditions":[5.9E1,7.9E1,1.3E1,-5.7426225E-2,1E0,-0E0,2E0,-4.27311E-3,3.2132797E-2,5E0,-0E0,8.014168E-2,7.7E1,-0E0,3.4991413E-2],"split_indices":[8,9,10,0,13,0,4,0,0,3,0,0,8,0,0],"split_type":[0,0,0,0,0,0,0,0,0,0,0,0,0,0,0],"sum_hessian":[1.0787237E2,5.8563465E1,4.93089E1,4.870679E1,9.856676E0,4.7537484E0,4.455515E1,2.9330227E0,6.9236536E0,4.3049217E1,1.5059326E0,2.9338097E1,1.371112E1,5.035035E0,8.6760845E0],"tree_param":{"num_deleted":"0","num_feature":"15","num_nodes":"15","size_leaf_vector":"1"}},{"base_weights":[-0E0,-5.712663E-1,6.811801E-1,3.3456862E-3,-6.32539E-1,9.134607E-1,-0E0,-0E0,-6.514179E-2,9.699667E-2,-0E0,-0E0,-1.4144963E-1,-0E0,-2.9976396E-2],"categories":[],"categories_nodes":[],"categories_segments":[],"categories_sizes":[],"default_left":[0,0,0,0,0,0,0,0,0,0,0,0,0,0,0],"id":6,"left_children":[1,3,5,-1,7,9,11,-1,-1,-1,-1,-1,13,-1,-1],"loss_changes":[4.2903503E1,3.4785748E0,9.375931E0,0E0,4.5239067E-1,2.9440613E0,2.0276123E-1,0E0,0E0,0E0,0E0,0E0,4.979658E-1,0E0,0E0],"parents":[2147483647,0,0,1,1,2,2,4,4,5,5,6,6,12,12],"right_children":[2,4,6,-1,8,10,12,-1,-1,-1,-1,-1,14,-1,-1],"split_conditions":[1E0,4E0,3.2E1,3.3456862E-3,1.1E1,6.2E1,1.9E1,-0E0,-6.514179E-2,9.699667E-2,-0E0,-0E0,3E0,-0E0,-2.9976396E-2],"split_indices":[14,10,10,0,9,9,11,0,0,0,0,0,5,0,0],"split_type":[0,0,0,0,0,0,0,0,0,0,0,0,0,0,0],"sum_hessian":[1.0638329E2,5.8402264E1,4.798103E1,2.4536092E0,5.5948654E1,3.7030487E1,1.09505415E1,2.2440925E0,5.3704563E1,3.574465E1,1.2858341E0,2.8165326E0,8.134009E0,2.3358862E0,5.7981234E0],"tree_param":{"num_deleted":"0","num_feature":"15","num_nodes":"15","size_leaf_vector":"1"}},{"base_weights":[6.629147E-3,-3.8747782E-1,1.6318028E-1,-0E0,-4.94384E-2,3.4167406E-1,-0E0,1.8197866E-3,-0E0,4.022848E-1,-0E0,-1.5760738E-1,3.5771486E-1,6.056246E-1,-0E0,-2.603282E-1,-0E0,-0E0,5.1767614E-2,7.2347246E-2,-0E0,-2.5828412E-2,4.5566436E-2,-0E0,-3.0242909E-2],"categories":[],"categories_nodes":[],"categories_segments":[],"categories_sizes":[],"default_left":[0,0,0,0,0,0,0,0,0,0,0,0,0,0,0,0,0,0,0,0,0,0,0,0,0],"id":7,"left_children":[1,3,5,7,-1,9,11,-1,-1,13,-1,15,17,19,21,23,-1,-1,-1,-1,-1,-1,-1,-1,-1],"loss_changes":[5.8832917E0,1.5062318E0,2.7565873E0,1.3629693E-3,0E0,1.4015875E0,1.9456747E0,0E0,0E0,2.215475E0,0E0,7.4626243E-1,9.833876E-1,1.5999899E0,2.58384E0,4.2026913E-1,0E0,0E0,0E0,0E0,0E0,0E0,0E0,0E0,0E0],"parents":[2147483647,0,0,1,1,2,2,3,3,5,5,6,6,9,9,11,11,12,12,13,13,14,14,15,15],"right_children":[2,4,6,8,-1,10,12,-1,-1,14,-1,16,18,20,22,24,-1,-1,-1,-1,-1,-1,-1,-1,-1],"split_conditions":[1.5E1,1E0,1E0,1E0,-4.94384E-2,8.8E1,1E0,1.8197866E-3,-0E0,1E0,-0E0,5E0,2E1,8E1,2.5E1,2.5E1,-0E0,-0E0,5.1767614E-2,7.2347246E-2,-0E0,-2.5828412E-2,4.5566436E-2,-0E0,-3.0242909E-2],"split_indices":[8,14,7,12,0,8,14,0,0,14,0,3,8,8,10,8,0,0,0,0,0,0,0,0,0],"split_type":[0,0,0,0,0,0,0,0,0,0,0,0,0,0,0,0,0,0,0,0,0,0,0,0,0],"sum_hessian":[9.857765E1,2.3554705E1,7.502295E1,3.6944246E0,1.9860281E1,3.918118E1,3.5841766E1,2.1157134E0,1.5787113E0,3.6367477E1,2.8137033E0,2.8570984E1,7.270783E0,2.0969013E1,1.5398463E1,2.0216782E1,8.354204E0,1.1746311E0,6.096152E0,1.7152374E1,3.8166392E0,8.246027E0,7.1524363E0,1.1600673E0,1.9056713E1],"tree_param":{"num_deleted":"0","num_feature":"15","num_nodes":"25","size_leaf_vector":"1"}},{"base_weights":[-5.0082477E-3,3.8473606E-1,-5.8583643E-2,-0E0,7.0245063E-1,-2.6560092E-1,4.1694865E-1,-0E0,7.22942E-1,-0E0,-3.7119254E-1,-0E0,6.437849E-1,-0E0,7.4297674E-2,-9.822161E-3,1.1665126E-3,-0E0,-4.0795356E-2,7.646035E-2,-0E0],"categories":[],"categories_nodes":[],"categories_segments":[],"categories_sizes":[],"default_left":[0,0,0,0,0,0,0,0,0,0,0,0,0,0,0,0,0,0,0,0,0],"id":8,"left_children":[1,3,-1,5,7,9,11,-1,13,15,17,-1,19,-1,-1,-1,-1,-1,-1,-1,-1],"loss_changes":[2.4518595E1,7.06752E0,0E0,3.7429802E0,3.337307E-1,3.5967267E-1,2.390538E0,0E0,2.8359985E-1,5.323939E-2,1.6174078E-2,0E0,5.7824326E-1,0E0,0E0,0E0,0E0,0E0,0E0,0E0,0E0],"parents":[2147483647,0,0,1,1,3,3,4,4,5,5,6,6,8,8,9,9,10,10,12,12],"right_children":[2,4,-1,6,8,10,12,-1,14,16,18,-1,20,-1,-1,-1,-1,-1,-1,-1,-1],"split_conditions":[1E0,1E0,-5.8583643E-2,8.8E1,2.1E1,1.6E1,1.7E1,-0E0,1.2E1,3.4E1,1.3E1,-0E0,1E0,-0E0,7.4297674E-2,-9.822161E-3,1.1665126E-3,-0E0,-4.0795356E-2,7.646035E-2,-0E0],"split_indices":[14,7,0,9,9,10,10,0,11,11,9,0,0,0,0,0,0,0,0,0,0],"split_type":[0,0,0,0,0,0,0,0,0,0,0,0,0,0,0,0,0,0,0,0,0],"sum_hessian":[1.02541855E2,5.9708454E1,4.28334E1,2.887402E1,3.0834433E1,1.709001E1,1.178401E1,1.1964246E0,2.9638008E1,6.705721E0,1.038429E1,2.2344093E0,9.549601E0,1.1695104E0,2.8468498E1,3.4442625E0,3.2614582E0,2.0341728E0,8.350117E0,7.1770606E0,2.3725395E0],"tree_param":{"num_deleted":"0","num_feature":"15","num_nodes":"21","size_leaf_vector":"1"}},{"base_weights":[-0E0,5.8836395E-1,-4.2132628E-1,6.353408E-1,-0E0,-0E0,-5.253373E-1,6.6819525E-1,-0E0,2.9270818E-2,-2.3896742E-1,-5.4323345E-2,-0E0,7.148497E-2,-0E0,-0E0,-3.318087E-2,4.39148E-4,-0E0],"categories":[],"categories_nodes":[],"categories_segments":[],"categories_sizes":[],"default_left":[0,0,0,0,0,0,0,0,0,0,0,0,0,0,0,0,0,0,0],"id":9,"left_children":[1,3,5,7,-1,9,11,13,-1,-1,15,-1,-1,-1,17,-1,-1,-1,-1],"loss_changes":[2.5395666E1,1.094142E0,2.5087442E0,4.6441364E-1,0E0,1.1676421E0,2.9429817E-1,4.0289783E-1,0E0,0E0,4.194758E-1,0E0,0E0,0E0,8.508622E-5,0E0,0E0,0E0,0E0],"parents":[2147483647,0,0,1,1,2,2,3,3,5,5,6,6,7,7,10,10,14,14],"right_children":[2,4,6,8,-1,10,12,14,-1,-1,16,-1,-1,-1,18,-1,-1,-1,-1],"split_conditions":[3.5E1,6E0,2.1E1,1E1,-0E0,6.6E1,9E0,2.9E1,-0E0,2.9270818E-2,3E0,-5.4323345E-2,-0E0,7.148497E-2,1E0,-0E0,-3.318087E-2,4.39148E-4,-0E0],"split_indices":[9,1,11,5,0,9,3,9,0,0,11,0,0,0,3,0,0,0,0],"split_type":[0,0,0,0,0,0,0,0,0,0,0,0,0,0,0,0,0,0,0],"sum_hessian":[9.9514275E1,3.962456E1,5.9889713E1,3.640728E1,3.2172794E0,1.2990572E1,4.689914E1,3.3763397E1,2.6438818E0,4.9082956E0,8.082277E0,4.472763E1,2.1715076E0,3.0035997E1,3.7274008E0,1.0427182E0,7.039559E0,2.4120193E0,1.3153815E0],"tree_param":{"num_deleted":"0","num_feature":"15","num_nodes":"19","size_leaf_vector":"1"}},{"base_weights":[-0E0,-2.5241098E-1,1.2608719E-1,-3.8418278E-2,-0E0,4.1383088E-1,-1.7864373E-2,-0E0,6.110464E-3,-0E0,5.344831E-1,6.3769616E-2,-3.1247702E-1,1.9356214E-1,-0E0,6.243667E-1,-0E0,5.387596E-2,-2.632173E-2,-0E0,-3.50468E-1,-0E0,3.1254563E-2,-0E0,6.7435056E-2,-2.9621696E-2,8.207159E-3,-3.7026476E-2,-0E0],"categories":[],"categories_nodes":[],"categories_segments":[],"categories_sizes":[],"default_left":[0,0,0,0,0,0,0,0,0,0,0,0,0,0,0,0,0,0,0,0,0,0,0,0,0,0,0,0,0],"id":10,"left_children":[1,3,5,-1,7,9,11,-1,13,-1,15,17,19,21,-1,23,-1,-1,25,-1,27,-1,-1,-1,-1,-1,-1,-1,-1],"loss_changes":[3.5074377E0,1.4078894E0,3.673946E0,0E0,4.0092898E-4,1.9277148E0,1.5816177E0,0E0,2.6298547E-1,0E0,1.8453565E0,2.3518698E0,1.1260474E-1,2.815273E-1,0E0,6.0056686E-1,0E0,0E0,1.1754143E0,0E0,5.662799E-3,0E0,0E0,0E0,0E0,0E0,0E0,0E0,0E0],"parents":[2147483647,0,0,1,1,2,2,4,4,5,5,6,6,8,8,10,10,11,11,12,12,13,13,15,15,18,18,20,20],"right_children":[2,4,6,-1,8,10,12,-1,14,-1,16,18,20,22,-1,24,-1,-1,26,-1,28,-1,-1,-1,-1,-1,-1,-1,-1],"split_conditions":[1.6E1,4.1E1,5.9E1,-3.8418278E-2,4E0,1.1E1,8.9E1,-0E0,1E0,-0E0,9.5E1,1E0,1E0,6.3E1,-0E0,1.1E1,-0E0,5.387596E-2,7.6E1,-0E0,8.5E1,-0E0,3.1254563E-2,-0E0,6.7435056E-2,-2.9621696E-2,8.207159E-3,-3.7026476E-2,-0E0],"split_indices":[10,9,8,0,10,9,9,0,7,0,9,7,12,9,0,8,0,0,9,0,10,0,0,0,0,0,0,0,0],"split_type":[0,0,0,0,0,0,0,0,0,0,0,0,0,0,0,0,0,0,0,0,0,0,0,0,0,0,0,0,0],"sum_hessian":[1.0300048E2,3.5779137E1,6.7221344E1,2.3846476E1,1.1932659E1,2.5797964E1,4.1423378E1,3.1947668E0,8.737893E0,4.385521E0,2.1412443E1,2.8347195E1,1.3076182E1,5.029955E0,3.7079377E0,1.9890457E1,1.5219866E0,6.470752E0,2.1876444E1,2.1746156E0,1.09015665E1,1.4516683E0,3.578287E0,1.8041838E0,1.8086273E1,1.0562342E1,1.1314102E1,9.600155E0,1.3014126E0],"tree_param":{"num_deleted":"0","num_feature":"15","num_nodes":"29","size_leaf_vector":"1"}},{"base_weights":[6.993322E-3,-4.4776192E-1,5.0992227E-1,-5.8626596E-2,-5.9734084E-2,6.0036886E-1,-2.8031228E-2,-4.167847E-2,9.913853E-2,-0E0,6.684072E-1,-5.0054123E-3,-0E0,3.4241E-2,-0E0,6.840972E-2,-0E0,-0E0,-1.7151656E-4],"categories":[],"categories_nodes":[],"categories_segments":[],"categories_sizes":[],"default_left":[0,0,0,0,0,0,0,0,0,0,0,0,0,0,0,0,0,0,0],"id":11,"left_children":[1,3,5,7,-1,9,11,-1,13,-1,15,-1,-1,-1,17,-1,-1,-1,-1],"loss_changes":[2.524529E1,1.8548536E0,3.8170347E0,1.9254776E0,0E0,2.53269E0,7.6211165E-3,0E0,8.910631E-1,0E0,3.9676476E-1,0E0,0E0,0E0,1.4083482E-5,0E0,0E0,0E0,0E0],"parents":[2147483647,0,0,1,1,2,2,3,3,5,5,6,6,8,8,10,10,14,14],"right_children":[2,4,6,8,-1,10,12,-1,14,-1,16,-1,-1,-1,18,-1,-1,-1,-1],"split_conditions":[5.9E1,1E0,1E0,1E0,-5.9734084E-2,1.5E1,5E0,-4.167847E-2,4E0,-0E0,9.4E1,-5.0054123E-3,-0E0,3.4241E-2,1.3E1,6.840972E-2,-0E0,-0E0,-1.7151656E-4],"split_indices":[8,14,14,13,0,11,1,0,3,0,11,0,0,0,11,0,0,0,0],"split_type":[0,0,0,0,0,0,0,0,0,0,0,0,0,0,0,0,0,0,0],"sum_hessian":[1.0584122E2,5.3609474E1,5.2231743E1,1.9370672E1,3.4238804E1,4.7697987E1,4.533756E0,8.795839E0,1.0574833E1,3.9338243E0,4.3764164E1,3.0909784E0,1.4427774E0,6.6541667E0,3.920666E0,4.2536808E1,1.2273551E0,1.1332852E0,2.787381E0],"tree_param":{"num_deleted":"0","num_feature":"15","num_nodes":"19","size_leaf_vector":"1"}},{"base_weights":[-0E0,6.742638E-1,-4.3454337E-1,8.025741E-2,-0E0,1.0748213E-1,-5.565417E-1,5.206208E-3,-2.0679892E-3,2.2520587E-1,-0E0,-0E0,-5.7229925E-2,2.9202277E-2,-0E0],"categories":[],"categories_nodes":[],"categories_segments":[],"categories_sizes":[],"default_left":[0,0,0,0,0,0,0,0,0,0,0,0,0,0,0],"id":12,"left_children":[1,3,5,-1,7,9,11,-1,-1,13,-1,-1,-1,-1,-1],"loss_changes":[2.8704624E1,3.0915775E0,5.1069603E0,0E0,1.6817236E-2,3.266992E-1,7.1697235E-3,0E0,0E0,4.7123283E-2,0E0,0E0,0E0,0E0,0E0],"parents":[2147483647,0,0,1,1,2,2,4,4,5,5,6,6,9,9],"right_children":[2,4,6,-1,8,10,12,-1,-1,14,-1,-1,-1,-1,-1],"split_conditions":[2.3E1,1E0,1.3E1,8.025741E-2,1.6E1,7.1E1,1.7E1,5.206208E-3,-2.0679892E-3,4E0,-0E0,-0E0,-5.7229925E-2,2.9202277E-2,-0E0],"split_indices":[8,0,10,0,10,8,10,0,0,3,0,0,0,0,0],"split_type":[0,0,0,0,0,0,0,0,0,0,0,0,0,0,0],"sum_hessian":[9.5293076E1,3.545364E1,5.983944E1,2.9234903E1,6.218737E0,8.02583E0,5.181361E1,3.4525583E0,2.7661788E0,6.7251945E0,1.3006353E0,2.900705E0,4.8912903E1,3.741798E0,2.9833968E0],"tree_param":{"num_deleted":"0","num_feature":"15","num_nodes":"15","size_leaf_vector":"1"}},{"base_weights":[-4.6689794E-3,-3.504322E-1,7.3732786E-2,-3.7757698E-1,-0E0,2.0105161E-1,-1.6466877E-1,-4.1949102E-1,-0E0,-0E0,3.2127059E-1,-0E0,-3.3231203E-2,-4.375426E-2,-0E0,-1.7629594E-1,6.864999E-2,5.2439964E-1,-0E0,8.769793E-3,-1.8730262E-2,-2.1889394E-2,-0E0,2.6661027E-2,-0E0,-0E0,6.204769E-2,1.0572533E-2,-4.3694857E-3,-0E0,-8.4933145E-3],"categories":[],"categories_nodes":[],"categories_segments":[],"categories_sizes":[],"default_left":[0,0,0,0,0,0,0,0,0,0,0,0,0,0,0,0,0,0,0,0,0,0,0,0,0,0,0,0,0,0,0],"id":13,"left_children":[1,3,5,7,-1,9,11,13,-1,15,17,19,-1,-1,-1,21,23,25,27,-1,29,-1,-1,-1,-1,-1,-1,-1,-1,-1,-1],"loss_changes":[3.3947618E0,1.4458227E-1,2.5922375E0,4.1476822E-1,0E0,1.9729383E0,7.2070277E-1,4.286647E-2,0E0,4.3468693E-1,2.455616E0,3.870546E-2,0E0,0E0,0E0,6.8463087E-3,3.7018192E-1,2.0664573E0,1.3474804E-1,0E0,6.6415735E-2,0E0,0E0,0E0,0E0,0E0,0E0,0E0,0E0,0E0,0E0],"parents":[2147483647,0,0,1,1,2,2,3,3,5,5,6,6,7,7,9,9,10,10,11,11,15,15,16,16,17,17,18,18,20,20],"right_children":[2,4,6,8,-1,10,12,14,-1,16,18,20,-1,-1,-1,22,24,26,28,-1,30,-1,-1,-1,-1,-1,-1,-1,-1,-1,-1],"split_conditions":[1.5E1,5E0,8E1,2.1E1,-0E0,1.6E1,8.7E1,7.6E1,-0E0,7.1E1,1E0,8.1E1,-3.3231203E-2,-4.375426E-2,-0E0,3.2E1,1E0,1.1E1,6.2E1,8.769793E-3,3.3E1,-2.1889394E-2,-0E0,2.6661027E-2,-0E0,-0E0,6.204769E-2,1.0572533E-2,-4.3694857E-3,-0E0,-8.4933145E-3],"split_indices":[8,1,8,10,0,10,9,11,0,9,7,8,0,0,0,8,7,11,8,0,10,0,0,0,0,0,0,0,0,0,0],"split_type":[0,0,0,0,0,0,0,0,0,0,0,0,0,0,0,0,0,0,0,0,0,0,0,0,0,0,0,0,0,0,0],"sum_hessian":[1.00908394E2,2.2084179E1,7.882421E1,1.9759892E1,2.3242888E0,5.7055923E1,2.1768288E1,1.7985785E1,1.7741058E0,1.6813122E1,4.0242805E1,1.1405855E1,1.03624325E1,1.659462E1,1.3911655E0,1.0765684E1,6.0474367E0,2.2784807E1,1.7457996E1,2.5368214E0,8.869034E0,6.423477E0,4.3422074E0,3.7414484E0,2.3059886E0,1.7137713E0,2.1071035E1,8.11798E0,9.340016E0,1.1334692E0,7.735564E0],"tree_param":{"num_deleted":"0","num_feature":"15","num_nodes":"31","size_leaf_vector":"1"}},{"base_weights":[1.54257845E-2,-4.7787827E-1,3.7581113E-1,-5.8249842E-2,-0E0,-0E0,4.875356E-1,-2.4908991E-1,1.9194966E-2,-0E0,5.3507745E-1,-0E0,-3.001988E-2,5.640318E-2,-0E0],"categories":[],"categories_nodes":[],"categories_segments":[],"categories_sizes":[],"default_left":[0,0,0,0,0,0,0,0,0,0,0,0,0,0,0],"id":14,"left_children":[1,3,5,-1,-1,7,9,11,-1,-1,13,-1,-1,-1,-1],"loss_changes":[1.7949442E1,1.7245588E0,3.2704954E0,0E0,0E0,8.0442834E-1,1.8886538E0,1.4556634E-1,0E0,0E0,1.2099714E0,0E0,0E0,0E0,0E0],"parents":[2147483647,0,0,1,1,2,2,5,5,6,6,7,7,10,10],"right_children":[2,4,6,-1,-1,8,10,12,-1,-1,14,-1,-1,-1,-1],"split_conditions":[5.1E1,3.3E1,1.9E1,-5.8249842E-2,-0E0,9E1,6E0,2E1,1.9194966E-2,-0E0,9.1E1,-0E0,-3.001988E-2,5.640318E-2,-0E0],"split_indices":[9,10,11,0,0,9,10,10,0,0,11,0,0,0,0],"split_type":[0,0,0,0,0,0,0,0,0,0,0,0,0,0,0],"sum_hessian":[9.809247E1,3.8791744E1,5.9300724E1,3.0537373E1,8.254372E0,1.1116905E1,4.8183815E1,7.8190494E0,3.297856E0,1.9249458E0,4.625887E1,1.4435205E0,6.375529E0,4.523471E1,1.0241606E0],"tree_param":{"num_deleted":"0","num_feature":"15","num_nodes":"15","size_leaf_vector":"1"}},{"base_weights":[-1.8290767E-2,5.8931535E-1,-4.1485497E-1,-0E0,6.1533976E-2,2.4082953E-2,-5.338155E-2,2.194014E-2,-0E0],"categories":[],"categories_nodes":[],"categories_segments":[],"categories_sizes":[],"default_left":[0,0,0,0,0,0,0,0,0],"id":15,"left_children":[1,3,5,-1,-1,7,-1,-1,-1],"loss_changes":[2.2948957E1,5.648718E-1,4.2012806E0,0E0,0E0,3.5760465E-1,0E0,0E0,0E0],"parents":[2147483647,0,0,1,1,2,2,5,5],"right_children":[2,4,6,-1,-1,8,-1,-1,-1],"split_conditions":[2.3E1,4E0,1.4E1,-0E0,6.1533976E-2,4E0,-5.338155E-2,2.194014E-2,-0E0],"split_indices":[8,11,10,0,0,3,0,0,0],"split_type":[0,0,0,0,0,0,0,0,0],"sum_hessian":[9.266055E1,3.421766E1,5.8442894E1,1.5068814E0,3.2710777E1,9.217007E0,4.9225887E1,5.5640483E0,3.6529589E0],"tree_param":{"num_deleted":"0","num_feature":"15","num_nodes":"9","size_leaf_vector":"1"}},{"base_weights":[-0E0,-2.3578882E-1,1.1020968E-1,-2.8379053E-1,-0E0,-4.49106E-2,2.5681257E-1,-0E0,-3.3053616E-1,-0E0,-1.4196096E-1,2.1056816E-2,3.8925286E-2,-3.608189E-1,-0E0,-2.3423717E-3,1.2279482E-1,-1.9729382E-1,-0E0,8.286896E-2,-0E0,-3.8411297E-2,-0E0,3.312361E-2,-0E0,-0E0,-2.1820929E-2,-0E0,1.810014E-2],"categories":[],"categories_nodes":[],"categories_segments":[],"categories_sizes":[],"default_left":[0,0,0,0,0,0,0,0,0,0,0,0,0,0,0,0,0,0,0,0,0,0,0,0,0,0,0,0,0],"id":16,"left_children":[1,3,5,7,-1,9,11,-1,13,15,17,19,-1,21,-1,-1,23,25,-1,27,-1,-1,-1,-1,-1,-1,-1,-1,-1],"loss_changes":[2.5404537E0,6.267303E-1,2.0653205E0,5.9407115E-1,0E0,3.0123243E-1,5.216832E-1,0E0,3.3205247E-1,1.6565602E-1,1.5251064E-1,7.229859E-2,0E0,3.0216217E-2,0E0,0E0,7.172116E-1,6.738305E-3,0E0,2.4751613E-1,0E0,0E0,0E0,0E0,0E0,0E0,0E0,0E0,0E0],"parents":[2147483647,0,0,1,1,2,2,3,3,5,5,6,6,8,8,9,9,10,10,11,11,13,13,16,16,17,17,19,19],"right_children":[2,4,6,8,-1,10,12,-1,14,16,18,20,-1,22,-1,-1,24,26,-1,28,-1,-1,-1,-1,-1,-1,-1,-1,-1],"split_conditions":[1.4E1,6E0,4E0,1E0,-0E0,3.7E1,1E0,-0E0,1E1,3E0,3E0,3.9E1,3.8925286E-2,2E0,-0E0,-2.3423717E-3,5E0,1E0,-0E0,2E1,-0E0,-3.8411297E-2,-0E0,3.312361E-2,-0E0,-0E0,-2.1820929E-2,-0E0,1.810014E-2],"split_indices":[10,1,5,5,0,11,2,0,5,1,5,10,0,4,0,0,1,2,0,10,0,0,0,0,0,0,0,0,0],"split_type":[0,0,0,0,0,0,0,0,0,0,0,0,0,0,0,0,0,0,0,0,0,0,0,0,0,0,0,0,0],"sum_hessian":[9.7314896E1,2.8146362E1,6.916853E1,2.6592533E1,1.5538301E0,2.7653463E1,4.1515068E1,2.0779352E0,2.4514597E1,1.1738323E1,1.5915141E1,2.119866E1,2.0316408E1,2.2801256E1,1.7133417E0,2.9315808E0,8.806742E0,1.1193446E1,4.7216945E0,1.0025839E1,1.1172821E1,2.008918E1,2.7120762E0,6.0220847E0,2.7846572E0,2.2664685E0,8.926978E0,1.949969E0,8.07587E0],"tree_param":{"num_deleted":"0","num_feature":"15","num_nodes":"29","size_leaf_vector":"1"}},{"base_weights":[-0E0,-4.1082963E-1,4.0304244E-1,-3.0191382E-2,-5.556516E-2,-0E0,5.4161924E-1,-0E0,-1.6723299E-1,-0E0,-6.0153812E-2,5.7300204E-1,-0E0,8.1566475E-2,-0E0,-0E0,-2.2349006E-1,-1.1552508E-2,-0E0,5.9117235E-2,-0E0,-0E0,2.2585025E-2,-2.581401E-2,-0E0],"categories":[],"categories_nodes":[],"categories_segments":[],"categories_sizes":[],"default_left":[0,0,0,0,0,0,0,0,0,0,0,0,0,0,0,0,0,0,0,0,0,0,0,0,0],"id":17,"left_children":[1,3,5,7,-1,9,11,13,15,-1,17,19,-1,21,-1,-1,23,-1,-1,-1,-1,-1,-1,-1,-1],"loss_changes":[1.5928496E1,1.444293E0,3.5814629E0,2.7024126E-1,0E0,3.469979E-2,4.9568844E-1,4.965973E-2,1.7252377E-1,0E0,6.406873E-2,3.318987E-1,0E0,2.7211046E-1,0E0,0E0,3.886041E-2,0E0,0E0,0E0,0E0,0E0,0E0,0E0,0E0],"parents":[2147483647,0,0,1,1,2,2,3,3,5,5,6,6,7,7,8,8,10,10,11,11,13,13,16,16],"right_children":[2,4,6,8,-1,10,12,14,16,-1,18,20,-1,22,-1,-1,24,-1,-1,-1,-1,-1,-1,-1,-1],"split_conditions":[5.5E1,1E0,2.4E1,1E0,-5.556516E-2,8E0,1E0,2.1E1,1.1E1,-0E0,1.7E1,1.1E1,-0E0,4E0,-0E0,-0E0,7.9E1,-1.1552508E-2,-0E0,5.9117235E-2,-0E0,-0E0,2.2585025E-2,-2.581401E-2,-0E0],"split_indices":[8,14,11,2,0,11,14,10,11,0,11,5,0,10,0,0,11,0,0,0,0,0,0,0,0],"split_type":[0,0,0,0,0,0,0,0,0,0,0,0,0,0,0,0,0,0,0,0,0,0,0,0,0],"sum_hessian":[9.218054E1,4.6064228E1,4.6116318E1,1.7168072E1,2.8896156E1,9.263142E0,3.6853176E1,8.880424E0,8.287647E0,1.6735417E0,7.5895996E0,3.4223534E1,2.6296427E0,5.4641595E0,3.416264E0,1.073288E0,7.2143593E0,5.4005833E0,2.1890166E0,3.2980698E1,1.2428349E0,1.1559703E0,4.3081894E0,5.489874E0,1.7244858E0],"tree_param":{"num_deleted":"0","num_feature":"15","num_nodes":"25","size_leaf_vector":"1"}},{"base_weights":[1.7304644E-2,-5.1910955E-1,5.5619633E-1,-0E0,-5.6266475E-1,7.507485E-1,-7.25561E-3,-0E0,-5.8224835E-2,8.1607245E-2,-0E0,-0E0,-2.0915695E-1,2.3694152E-2,-0E0,-2.4198858E-2,-0E0],"categories":[],"categories_nodes":[],"categories_segments":[],"categories_sizes":[],"default_left":[0,0,0,0,0,0,0,0,0,0,0,0,0,0,0,0,0],"id":18,"left_children":[1,3,5,-1,7,9,11,-1,-1,-1,13,-1,15,-1,-1,-1,-1],"loss_changes":[2.789788E1,1.3161306E0,6.9618673E0,0E0,2.0142841E-1,5.2827835E-1,4.2884943E-1,0E0,0E0,0E0,2.9968223E-1,0E0,1.2245595E-2,0E0,0E0,0E0,0E0],"parents":[2147483647,0,0,1,1,2,2,4,4,5,5,6,6,10,10,12,12],"right_children":[2,4,6,-1,8,10,12,-1,-1,-1,14,-1,16,-1,-1,-1,-1],"split_conditions":[1E0,4E0,3.3E1,-0E0,1.3E1,1E0,2.3E1,-0E0,-5.8224835E-2,8.1607245E-2,1.1E1,-0E0,7.4E1,2.3694152E-2,-0E0,-2.4198858E-2,-0E0],"split_indices":[14,10,10,0,8,12,8,0,0,0,8,0,8,0,0,0,0],"split_type":[0,0,0,0,0,0,0,0,0,0,0,0,0,0,0,0,0],"sum_hessian":[9.225515E1,4.441071E1,4.7844437E1,2.7499096E0,4.16608E1,3.7708828E1,1.0135609E1,2.293459E0,3.936734E1,3.239938E1,5.3094482E0,2.3179758E0,7.817633E0,3.3380013E0,1.971447E0,5.5434675E0,2.2741659E0],"tree_param":{"num_deleted":"0","num_feature":"15","num_nodes":"17","size_leaf_vector":"1"}},{"base_weights":[-0E0,-2.4013697E-1,9.5759585E-2,5.368071E-3,-3.9091906E-1,1.8771385E-1,-6.332356E-2,-4.3103136E-2,-0E0,-0E0,3.940201E-1,7.197225E-2,-2.4037021E-1,-1.3411388E-1,1.9619644E-2,6.0880333E-2,3.9809063E-2,-0E0,2.261178E-2,-0E0,-2.773982E-1,-0E0,-2.256252E-2,-0E0,1.7703064E-2,-0E0,1.399381E-2,-3.554039E-2,-0E0],"categories":[],"categories_nodes":[],"categories_segments":[],"categories_sizes":[],"default_left":[0,0,0,0,0,0,0,0,0,0,0,0,0,0,0,0,0,0,0,0,0,0,0,0,0,0,0,0,0],"id":19,"left_children":[1,3,5,-1,7,9,11,-1,-1,13,15,17,19,21,23,-1,25,-1,-1,-1,27,-1,-1,-1,-1,-1,-1,-1,-1],"loss_changes":[2.286543E0,1.9425285E0,1.3742834E0,0E0,4.3468237E-1,2.8605306E0,8.7720317E-1,0E0,0E0,2.751573E-1,1.026442E0,2.3211206E-1,1.5232545E-1,2.138502E-1,1.9076113E-1,0E0,1.818184E-1,0E0,0E0,0E0,1.3017237E-1,0E0,0E0,0E0,0E0,0E0,0E0,0E0,0E0],"parents":[2147483647,0,0,1,1,2,2,4,4,5,5,6,6,9,9,10,10,11,11,12,12,13,13,14,14,16,16,20,20],"right_children":[2,4,6,-1,8,10,12,-1,-1,14,16,18,20,22,24,-1,26,-1,-1,-1,28,-1,-1,-1,-1,-1,-1,-1,-1],"split_conditions":[2E1,1E0,8.9E1,5.368071E-3,1E1,1E0,1E0,-4.3103136E-2,-0E0,1E0,1E0,9E1,1E0,1E0,1E0,6.0880333E-2,7.4E1,-0E0,2.261178E-2,-0E0,5E0,-0E0,-2.256252E-2,-0E0,1.7703064E-2,-0E0,1.399381E-2,-3.554039E-2,-0E0],"split_indices":[9,14,9,0,5,2,12,0,0,12,7,9,5,14,14,0,9,0,0,0,5,0,0,0,0,0,0,0,0],"split_type":[0,0,0,0,0,0,0,0,0,0,0,0,0,0,0,0,0,0,0,0,0,0,0,0,0,0,0,0,0],"sum_hessian":[9.8989845E1,2.5675276E1,7.331457E1,4.6459193E0,2.1029356E1,5.41985E1,1.9116066E1,1.9282188E1,1.7471676E0,2.5018396E1,2.9180103E1,5.105244E0,1.4010822E1,1.2997911E1,1.2020486E1,1.3755376E1,1.5424727E1,1.8456879E0,3.2595565E0,2.0095282E0,1.2001294E1,5.4979777E0,7.4999332E0,7.761423E0,4.259063E0,6.729946E0,8.694781E0,7.560209E0,4.4410853E0],"tree_param":{"num_deleted":"0","num_feature":"15","num_nodes":"29","size_leaf_vector":"1"}},{"base_weights":[-2.7584638E-2,2.7041996E-1,-5.535222E-2,-1.5412495E-1,4.893166E-1,-3.0441225E-2,-0E0,-0E0,5.4619074E-2],"categories":[],"categories_nodes":[],"categories_segments":[],"categories_sizes":[],"default_left":[0,0,0,0,0,0,0,0,0],"id":20,"left_children":[1,3,-1,5,7,-1,-1,-1,-1],"loss_changes":[1.6321299E1,6.570185E0,0E0,8.8007736E-1,1.000637E0,0E0,0E0,0E0,0E0],"parents":[2147483647,0,0,1,1,3,3,4,4],"right_children":[2,4,-1,6,8,-1,-1,-1,-1],"split_conditions":[1E0,1E0,-5.535222E-2,1E0,4.4E1,-3.0441225E-2,-0E0,-0E0,5.4619074E-2],"split_indices":[14,13,0,12,9,0,0,0,0],"split_type":[0,0,0,0,0,0,0,0,0],"sum_hessian":[9.661257E1,5.986247E1,3.67501E1,1.7458054E1,4.2404415E1,1.2485161E1,4.972893E0,5.4118896E0,3.6992527E1],"tree_param":{"num_deleted":"0","num_feature":"15","num_nodes":"9","size_leaf_vector":"1"}},{"base_weights":[-0E0,-5.398481E-1,5.485618E-1,-0E0,-5.6174E-2,7.231905E-2,-0E0],"categories":[],"categories_nodes":[],"categories_segments":[],"categories_sizes":[],"default_left":[0,0,0,0,0,0,0],"id":21,"left_children":[1,3,5,-1,-1,-1,-1],"loss_changes":[2.903566E1,8.417368E-1,4.7232103E0,0E0,0E0,0E0,0E0],"parents":[2147483647,0,0,1,1,2,2],"right_children":[2,4,6,-1,-1,-1,-1],"split_conditions":[1E0,7E0,3.2E1,-0E0,-5.6174E-2,7.231905E-2,-0E0],"split_indices":[14,8,8,0,0,0,0],"split_type":[0,0,0,0,0,0,0],"sum_hessian":[9.4002426E1,4.599976E1,4.8002666E1,1.0008435E0,4.4998917E1,3.5800854E1,1.2201811E1],"tree_param":{"num_deleted":"0","num_feature":"15","num_nodes":"7","size_leaf_vector":"1"}},{"base_weights":[-0E0,-3.6170343E-1,1.1905566E-1,-0E0,-4.836748E-2,2.4306744E-1,-1.0019507E-1,-0E0,3.0992717E-1,3.0202717E-2,-2.5178546E-1,-1.963049E-2,-0E0,3.8394392E-1,-0E0,2.3534028E-2,-0E0,-0E0,-3.1968492E-1,-0E0,4.7851454E-2,-0E0,-1.1053719E-3,-3.5429474E-2,-0E0],"categories":[],"categories_nodes":[],"categories_segments":[],"categories_sizes":[],"default_left":[0,0,0,0,0,0,0,0,0,0,0,0,0,0,0,0,0,0,0,0,0,0,0,0,0],"id":22,"left_children":[1,3,5,-1,-1,7,9,11,13,15,17,-1,-1,19,21,-1,-1,-1,23,-1,-1,-1,-1,-1,-1],"loss_changes":[3.9795332E0,1.4061334E0,2.423462E0,0E0,0E0,1.5186903E0,9.1987187E-1,2.4977696E-1,1.421319E0,3.1114888E-1,4.866203E-1,0E0,0E0,1.7565951E0,1.0680887E-3,0E0,0E0,0E0,5.9993505E-2,0E0,0E0,0E0,0E0,0E0,0E0],"parents":[2147483647,0,0,1,1,2,2,5,5,6,6,7,7,8,8,9,9,10,10,13,13,14,14,18,18],"right_children":[2,4,6,-1,-1,8,10,12,14,16,18,-1,-1,20,22,-1,-1,-1,24,-1,-1,-1,-1,-1,-1],"split_conditions":[1.5E1,1E0,8.8E1,-0E0,-4.836748E-2,1.1E1,5.9E1,5.9E1,8.3E1,9.6E1,1.3E1,-1.963049E-2,-0E0,2E1,6E1,2.3534028E-2,-0E0,-0E0,9.7E1,-0E0,4.7851454E-2,-0E0,-1.1053719E-3,-3.5429474E-2,-0E0],"split_indices":[8,14,9,0,0,11,8,8,8,9,10,0,0,9,9,0,0,0,9,0,0,0,0,0,0],"split_type":[0,0,0,0,0,0,0,0,0,0,0,0,0,0,0,0,0,0,0,0,0,0,0,0,0],"sum_hessian":[9.492471E1,2.0093752E1,7.483096E1,3.727419E0,1.6366333E1,5.3484165E1,2.1346794E1,5.5460916E0,4.7938076E1,5.243992E0,1.6102802E1,4.481718E0,1.0643735E0,4.01816E1,7.7564774E0,3.7372324E0,1.5067596E0,2.1117198E0,1.3991082E1,7.3539224E0,3.2827675E1,1.0148866E0,6.741591E0,1.1497396E1,2.4936857E0],"tree_param":{"num_deleted":"0","num_feature":"15","num_nodes":"25","size_leaf_vector":"1"}},{"base_weights":[-0E0,2.8767663E-1,-5.057164E-1,-3.3099413E-2,4.4008344E-1,-5.4267388E-2,-0E0,-3.9978243E-2,1.8651956E-1,-0E0,5.2203995E-1,-0E0,-8.526665E-3,3.1333825E-1,-0E0,-0E0,-1.2905005E-3,5.3822696E-1,-0E0,3.7545454E-2,-0E0,5.5296004E-2,-0E0],"categories":[],"categories_nodes":[],"categories_segments":[],"categories_sizes":[],"default_left":[0,0,0,0,0,0,0,0,0,0,0,0,0,0,0,0,0,0,0,0,0,0,0],"id":23,"left_children":[1,3,5,7,9,-1,11,-1,13,15,17,-1,-1,19,-1,-1,-1,21,-1,-1,-1,-1,-1],"loss_changes":[1.4818249E1,3.9179034E0,7.584953E-2,2.0164263E0,2.638545E0,0E0,3.9163657E-2,0E0,4.7903153E-1,7.974055E-4,3.7085629E-1,0E0,0E0,1.675669E-1,0E0,0E0,0E0,1.0312271E-1,0E0,0E0,0E0,0E0,0E0],"parents":[2147483647,0,0,1,1,2,2,3,3,4,4,6,6,8,8,9,9,10,10,13,13,17,17],"right_children":[2,4,6,8,10,-1,12,-1,14,16,18,-1,-1,20,-1,-1,-1,22,-1,-1,-1,-1,-1],"split_conditions":[1E0,1E0,6.2E1,5.9E1,1.4E1,-5.4267388E-2,1E0,-3.9978243E-2,1E1,3E0,9.4E1,-0E0,-8.526665E-3,8.6E1,-0E0,-0E0,-1.2905005E-3,9.2E1,-0E0,3.7545454E-2,-0E0,5.5296004E-2,-0E0],"split_indices":[14,13,8,8,11,0,13,0,5,11,11,0,0,8,0,0,0,8,0,0,0,0,0],"split_type":[0,0,0,0,0,0,0,0,0,0,0,0,0,0,0,0,0,0,0,0,0,0,0],"sum_hessian":[9.648289E1,6.089426E1,3.5588623E1,1.5890926E1,4.5003334E1,3.0900757E1,4.687867E0,8.749112E0,7.1418138E0,3.9180684E0,4.1085266E1,1.3011414E0,3.3867254E0,6.1183968E0,1.0234171E0,1.1299719E0,2.7880967E0,3.9812874E1,1.2723916E0,4.843049E0,1.2753476E0,3.7951683E1,1.8611898E0],"tree_param":{"num_deleted":"0","num_feature":"15","num_nodes":"23","size_leaf_vector":"1"}},{"base_weights":[-0E0,-4.7146517E-1,4.7481075E-1,-0E0,-5.420667E-1,6.027296E-1,-1.04587674E-1,-0E0,-5.6070805E-2,6.4127386E-1,-0E0,-0E0,-1.7081445E-2,-0E0,6.528272E-1,6.823955E-2,-0E0],"categories":[],"categories_nodes":[],"categories_segments":[],"categories_sizes":[],"default_left":[0,0,0,0,0,0,0,0,0,0,0,0,0,0,0,0,0],"id":24,"left_children":[1,3,5,-1,7,9,11,-1,-1,13,-1,-1,-1,-1,15,-1,-1],"loss_changes":[2.1646646E1,2.5327692E0,4.805993E0,0E0,1.9232464E-1,1.5990076E0,1.0590943E-1,0E0,0E0,2.0380592E-1,0E0,0E0,0E0,0E0,1.38988495E-2,0E0,0E0],"parents":[2147483647,0,0,1,1,2,2,4,4,5,5,6,6,9,9,14,14],"right_children":[2,4,6,-1,8,10,12,-1,-1,14,-1,-1,-1,-1,16,-1,-1],"split_conditions":[1E0,4E0,5E1,-0E0,1.3E1,5.1E1,2.5E1,-0E0,-5.6070805E-2,4E0,-0E0,-0E0,-1.7081445E-2,-0E0,3.6E1,6.823955E-2,-0E0],"split_indices":[14,10,8,0,8,10,10,0,0,11,0,0,0,0,8,0,0],"split_type":[0,0,0,0,0,0,0,0,0,0,0,0,0,0,0,0,0],"sum_hessian":[9.267698E1,4.497604E1,4.7700935E1,2.8202436E0,4.2155796E1,4.18358E1,5.8651376E0,2.2754824E0,3.9880314E1,4.061293E1,1.2228683E0,1.2867007E0,4.578437E0,1.0167212E0,3.959621E1,3.609942E1,3.4967918E0],"tree_param":{"num_deleted":"0","num_feature":"15","num_nodes":"17","size_leaf_vector":"1"}},{"base_weights":[-1.4098386E-2,-3.1994164E-1,5.0471928E-2,-4.0895045E-2,-0E0,2.1524912E-1,-8.5661374E-2,3.327975E-1,-0E0,-0E0,-1.6096479E-1,-0E0,5.6311375E-1,-1.4126335E-1,-0E0,-0E0,1.572104E-2,-0E0,-2.6190802E-1,-8.825715E-3,1.5406509E-2,-0E0,6.5314524E-2,-0E0,-1.6004741E-2,-5.035274E-3,-0E0,-0E0,9.754663E-3,-3.0557385E-2,-0E0],"categories":[],"categories_nodes":[],"categories_segments":[],"categories_sizes":[],"default_left":[0,0,0,0,0,0,0,0,0,0,0,0,0,0,0,0,0,0,0,0,0,0,0,0,0,0,0,0,0,0,0],"id":25,"left_children":[1,3,5,-1,-1,7,9,11,13,15,17,19,21,23,-1,25,-1,27,29,-1,-1,-1,-1,-1,-1,-1,-1,-1,-1,-1,-1],"loss_changes":[2.6430295E0,7.446916E-1,2.156755E0,0E0,0E0,1.6263602E0,5.166719E-1,2.7378936E0,1.855961E-1,1.3325264E-1,6.525295E-1,2.1176444E-1,1.6872039E0,6.4878464E-3,0E0,1.2898558E-2,0E0,5.0492957E-2,2.567327E-1,0E0,0E0,0E0,0E0,0E0,0E0,0E0,0E0,0E0,0E0,0E0,0E0],"parents":[2147483647,0,0,1,1,2,2,5,5,6,6,7,7,8,8,9,9,10,10,11,11,12,12,13,13,15,15,17,17,18,18],"right_children":[2,4,6,-1,-1,8,10,12,14,16,18,20,22,24,-1,26,-1,28,30,-1,-1,-1,-1,-1,-1,-1,-1,-1,-1,-1,-1],"split_conditions":[1.5E1,2.1E1,1E0,-4.0895045E-2,-0E0,8.8E1,5.9E1,1.7E1,1E0,4.5E1,3.1E1,1E0,1.1E1,5.9E1,-0E0,2.2E1,1.572104E-2,5.3E1,9.2E1,-8.825715E-3,1.5406509E-2,-0E0,6.5314524E-2,-0E0,-1.6004741E-2,-5.035274E-3,-0E0,-0E0,9.754663E-3,-3.0557385E-2,-0E0],"split_indices":[8,10,7,0,0,9,8,10,4,10,11,12,11,8,0,11,0,10,8,0,0,0,0,0,0,0,0,0,0,0,0],"split_type":[0,0,0,0,0,0,0,0,0,0,0,0,0,0,0,0,0,0,0,0,0,0,0,0,0,0,0,0,0,0,0],"sum_hessian":[1.02909485E2,2.1959658E1,8.094983E1,1.7117777E1,4.841881E0,4.274273E1,3.82071E1,3.14018E1,1.1340928E1,8.878773E0,2.9328325E1,1.3101135E1,1.8300665E1,7.3005767E0,4.0403514E0,5.4872265E0,3.3915458E0,9.982476E0,1.934585E1,1.0174848E1,2.9262877E0,1.2558625E0,1.7044802E1,1.8017428E0,5.498834E0,3.0873885E0,2.3998382E0,6.675998E0,3.3064773E0,1.6430647E1,2.9152033E0],"tree_param":{"num_deleted":"0","num_feature":"15","num_nodes":"31","size_leaf_vector":"1"}},{"base_weights":[-0E0,2.641268E-1,-4.850563E-2,-2.669789E-2,5.317072E-1,-2.9340655E-1,2.8768888E-2,-0E0,6.4247765E-2,-0E0,-3.27815E-2,-0E0,5.136547E-3],"categories":[],"categories_nodes":[],"categories_segments":[],"categories_sizes":[],"default_left":[0,0,0,0,0,0,0,0,0,0,0,0,0],"id":26,"left_children":[1,3,-1,5,7,9,-1,11,-1,-1,-1,-1,-1],"loss_changes":[1.2735178E1,6.00738E0,0E0,2.6052065E0,1.8722658E0,4.705262E-2,0E0,1.4613651E-2,0E0,0E0,0E0,0E0,0E0],"parents":[2147483647,0,0,1,1,3,3,4,4,5,5,7,7],"right_children":[2,4,-1,6,8,10,-1,12,-1,-1,-1,-1,-1],"split_conditions":[1E0,1E0,-4.850563E-2,8E1,1E0,3E0,2.8768888E-2,7.4E1,6.4247765E-2,-0E0,-3.27815E-2,-0E0,5.136547E-3],"split_indices":[14,7,0,8,13,5,0,8,0,0,0,0,0],"split_type":[0,0,0,0,0,0,0,0,0,0,0,0,0],"sum_hessian":[9.5047676E1,6.1852917E1,3.319476E1,2.692023E1,3.4932686E1,1.8078485E1,8.841745E0,7.101598E0,2.7831089E1,3.5559387E0,1.4522546E1,3.5627904E0,3.5388074E0],"tree_param":{"num_deleted":"0","num_feature":"15","num_nodes":"13","size_leaf_vector":"1"}},{"base_weights":[-0E0,4.0618333E-1,-3.3672118E-1,5.2809346E-2,-0E0,-0E0,-4.900429E-1,-1.5719235E-3,-0E0,4.661433E-3,-2.0642688E-2,-0E0,-5.2456845E-2,1.8999632E-2,-0E0,-0E0,-5.321473E-3],"categories":[],"categories_nodes":[],"categories_segments":[],"categories_sizes":[],"default_left":[0,0,0,0,0,0,0,0,0,0,0,0,0,0,0,0,0],"id":27,"left_children":[1,3,5,-1,7,9,11,-1,-1,13,-1,-1,-1,-1,15,-1,-1],"loss_changes":[1.2196777E1,2.413598E0,1.9914231E0,0E0,1.8872585E-3,3.076905E-1,8.0499077E-1,0E0,0E0,3.157124E-1,0E0,0E0,0E0,0E0,2.063399E-2,0E0,0E0],"parents":[2147483647,0,0,1,1,2,2,4,4,5,5,6,6,9,9,14,14],"right_children":[2,4,6,-1,8,10,12,-1,-1,14,-1,-1,-1,-1,16,-1,-1],"split_conditions":[2.3E1,1E0,5.9E1,5.2809346E-2,8.1E1,1E0,6E0,-1.5719235E-3,-0E0,1E0,-2.0642688E-2,-0E0,-5.2456845E-2,1.8999632E-2,1E0,-0E0,-5.321473E-3],"split_indices":[8,0,8,0,11,7,11,0,0,2,0,0,0,0,5,0,0],"split_type":[0,0,0,0,0,0,0,0,0,0,0,0,0,0,0,0,0],"sum_hessian":[8.619129E1,3.619072E1,5.0000576E1,2.9247866E1,6.9428525E0,1.9156229E1,3.0844347E1,5.6378055E0,1.3050469E0,1.3943622E1,5.2126064E0,1.255749E0,2.9588598E1,6.7554317E0,7.1881905E0,1.9016813E0,5.286509E0],"tree_param":{"num_deleted":"0","num_feature":"15","num_nodes":"17","size_leaf_vector":"1"}},{"base_weights":[-0E0,-3.0250004E-1,9.110595E-2,-3.8171865E-2,-0E0,1.7876495E-1,-1.8172228E-1,2.7410346E-1,-0E0,-0E0,-2.7344707E-2,-0E0,3.1095517E-1,2.5574473E-1,-3.966026E-2,-0E0,3.6536414E-2,-0E0,3.1723928E-2,-1.3487718E-2,-0E0],"categories":[],"categories_nodes":[],"categories_segments":[],"categories_sizes":[],"default_left":[0,0,0,0,0,0,0,0,0,0,0,0,0,0,0,0,0,0,0,0,0],"id":28,"left_children":[1,3,5,-1,-1,7,9,11,13,-1,-1,-1,15,17,19,-1,-1,-1,-1,-1,-1],"loss_changes":[2.9737191E0,6.488178E-1,1.9357618E0,0E0,0E0,8.6333895E-1,4.9129635E-1,5.86292E-1,5.138288E-1,0E0,0E0,0E0,4.498198E-1,8.622053E-2,1.8428232E-1,0E0,0E0,0E0,0E0,0E0,0E0],"parents":[2147483647,0,0,1,1,2,2,5,5,6,6,7,7,8,8,12,12,13,13,14,14],"right_children":[2,4,6,-1,-1,8,10,12,14,-1,-1,-1,16,18,20,-1,-1,-1,-1,-1,-1],"split_conditions":[1.5E1,1E0,9.1E1,-3.8171865E-2,-0E0,1E0,1E0,1.3E1,3.5E1,-0E0,-2.7344707E-2,-0E0,2.3E1,3E1,1E0,-0E0,3.6536414E-2,-0E0,3.1723928E-2,-1.3487718E-2,-0E0],"split_indices":[8,0,9,0,0,0,13,9,8,0,0,0,8,9,6,0,0,0,0,0,0],"split_type":[0,0,0,0,0,0,0,0,0,0,0,0,0,0,0,0,0,0,0,0,0],"sum_hessian":[9.98507E1,2.3379515E1,7.647118E1,1.839133E1,4.9881835E0,6.3945744E1,1.2525439E1,3.7540188E1,2.6405554E1,1.539924E0,1.0985516E1,2.7531524E0,3.4787037E1,5.3004103E0,2.1105145E1,6.7709713E0,2.8016066E1,1.6992354E0,3.6011746E0,1.0127694E1,1.0977449E1],"tree_param":{"num_deleted":"0","num_feature":"15","num_nodes":"21","size_leaf_vector":"1"}},{"base_weights":[2.3578454E-2,3.338109E-1,-5.0164957E-2,-0E0,4.4144797E-1,-6.924593E-2,5.7739466E-2,-0E0,4.732879E-2,-1.7692491E-1,-0E0,1.6472533E-1,-0E0,-2.2919362E-2,-0E0,2.2163955E-2,-0E0],"categories":[],"categories_nodes":[],"categories_segments":[],"categories_sizes":[],"default_left":[0,0,0,0,0,0,0,0,0,0,0,0,0,0,0,0,0],"id":29,"left_children":[1,3,-1,5,7,9,11,-1,-1,13,-1,15,-1,-1,-1,-1,-1],"loss_changes":[1.5460358E1,2.3433933E0,0E0,7.804441E-2,1.1238365E0,2.0920463E-1,1.5942216E-1,0E0,0E0,1.12249464E-1,0E0,9.0329126E-2,0E0,0E0,0E0,0E0,0E0],"parents":[2147483647,0,0,1,1,3,3,4,4,5,5,6,6,9,9,11,11],"right_children":[2,4,-1,6,8,10,12,-1,-1,14,-1,16,-1,-1,-1,-1,-1],"split_conditions":[1E0,1E0,-5.0164957E-2,5.1E1,1E1,1E1,7.1E1,-0E0,4.732879E-2,3.4E1,-0E0,9E0,-0E0,-2.2919362E-2,-0E0,2.2163955E-2,-0E0],"split_indices":[14,13,0,11,10,1,11,0,0,10,0,5,0,0,0,0,0],"split_type":[0,0,0,0,0,0,0,0,0,0,0,0,0,0,0,0,0],"sum_hessian":[9.2886826E1,6.124718E1,3.1639645E1,1.5057599E1,4.6189583E1,7.930047E0,7.127552E0,1.248605E0,4.4940975E1,6.2044506E0,1.7255964E0,4.99672E0,2.1308322E0,5.0259023E0,1.1785481E0,3.7035382E0,1.2931814E0],"tree_param":{"num_deleted":"0","num_feature":"15","num_nodes":"17","size_leaf_vector":"1"}},{"base_weights":[-0E0,4.3941495E-1,-3.3870125E-1,4.9899295E-2,-0E0,-1.5355683E-3,-4.2891532E-1,-0E0,2.525877E-2,2.6017776E-2,-1.6665926E-2,-4.478483E-2,-0E0,-0E0,1.6392725E-2],"categories":[],"categories_nodes":[],"categories_segments":[],"categories_sizes":[],"default_left":[0,0,0,0,0,0,0,0,0,0,0,0,0,0,0],"id":30,"left_children":[1,3,5,-1,7,9,11,-1,-1,13,-1,-1,-1,-1,-1],"loss_changes":[1.3879263E1,2.0001459E-1,7.4285793E-1,0E0,3.9387673E-1,3.7105682E-1,2.4595785E-1,0E0,0E0,1.4529063E-1,0E0,0E0,0E0,0E0,0E0],"parents":[2147483647,0,0,1,1,2,2,4,4,5,5,6,6,9,9],"right_children":[2,4,6,-1,8,10,12,-1,-1,14,-1,-1,-1,-1,-1],"split_conditions":[1.7E1,1E0,3.3E1,4.9899295E-2,1E0,2.1E1,9.1E1,-0E0,2.525877E-2,1.3E1,-1.6665926E-2,-4.478483E-2,-0E0,-0E0,1.6392725E-2],"split_indices":[10,0,10,0,3,11,11,0,0,11,0,0,0,0,0],"split_type":[0,0,0,0,0,0,0,0,0,0,0,0,0,0,0],"sum_hessian":[8.9298584E1,3.852964E1,5.0768944E1,3.0232512E1,8.29713E0,1.5825673E1,3.494327E1,4.123567E0,4.173563E0,4.626423E0,1.119925E1,3.3112022E1,1.8312497E0,1.0527611E0,3.5736616E0],"tree_param":{"num_deleted":"0","num_feature":"15","num_nodes":"15","size_leaf_vector":"1"}},{"base_weights":[-0E0,-2.1152884E-1,7.018106E-2,-3.0845535E-1,-0E0,2.477089E-1,-1.564751E-2,-0E0,-3.3067565E-2,-1.1531825E-2,3.6901727E-1,8.246742E-2,-1.3028394E-1,3.8992047E-2,-0E0,-0E0,1.8139811E-1,-0E0,-2.0550905E-1,-1.6294018E-3,-0E0,3.20376E-2,-0E0,-0E0,1.3244043E-3,-0E0,-3.0661082E-2],"categories":[],"categories_nodes":[],"categories_segments":[],"categories_sizes":[],"default_left":[0,0,0,0,0,0,0,0,0,0,0,0,0,0,0,0,0,0,0,0,0,0,0,0,0,0,0],"id":31,"left_children":[1,3,5,7,-1,9,11,-1,-1,-1,13,15,17,-1,-1,19,21,23,25,-1,-1,-1,-1,-1,-1,-1,-1],"loss_changes":[1.3066773E0,6.4974713E-1,1.6705794E0,1.0614169E-1,0E0,2.0612762E0,6.493406E-1,0E0,0E0,0E0,1.9988585E-1,2.194947E-1,6.766963E-1,0E0,0E0,2.0351408E-3,2.4089953E-1,6.656027E-4,2.2595704E-1,0E0,0E0,0E0,0E0,0E0,0E0,0E0,0E0],"parents":[2147483647,0,0,1,1,2,2,3,3,5,5,6,6,10,10,11,11,12,12,15,15,16,16,17,17,18,18],"right_children":[2,4,6,8,-1,10,12,-1,-1,-1,14,16,18,-1,-1,20,22,24,26,-1,-1,-1,-1,-1,-1,-1,-1],"split_conditions":[1.5E1,1E0,5.9E1,4E0,-0E0,1.1E1,1E0,-0E0,-3.3067565E-2,-1.1531825E-2,9E0,4E0,1.3E1,3.8992047E-2,-0E0,7.9E1,8E1,1E0,1E0,-1.6294018E-3,-0E0,3.20376E-2,-0E0,-0E0,1.3244043E-3,-0E0,-3.0661082E-2],"split_indices":[8,0,8,11,0,11,7,0,0,0,3,3,11,0,0,11,8,3,0,0,0,0,0,0,0,0,0],"split_type":[0,0,0,0,0,0,0,0,0,0,0,0,0,0,0,0,0,0,0,0,0,0,0,0,0,0,0],"sum_hessian":[9.521403E1,1.8543186E1,7.667084E1,1.4490047E1,4.0531387E0,3.135214E1,4.53187E1,1.1710007E0,1.3319046E1,3.7479324E0,2.7604208E1,1.5320758E1,2.9997942E1,2.5829899E1,1.7743093E0,7.070394E0,8.250363E0,3.1153567E0,2.6882586E1,5.6654563E0,1.4049377E0,3.6331458E0,4.6172175E0,1.3206875E0,1.7946692E0,1.3503581E1,1.33790045E1],"tree_param":{"num_deleted":"0","num_feature":"15","num_nodes":"27","size_leaf_vector":"1"}},{"base_weights":[-0E0,-3.7578622E-1,3.0197182E-1,-5.047354E-2,-0E0,4.0018645E-1,-1.17860824E-1,-2.6624426E-2,1.0050264E-1,4.454841E-1,-0E0,-1.6302256E-2,-0E0,1.9084772E-2,-0E0,-0E0,4.86686E-2],"categories":[],"categories_nodes":[],"categories_segments":[],"categories_sizes":[],"default_left":[0,0,0,0,0,0,0,0,0,0,0,0,0,0,0,0,0],"id":32,"left_children":[1,3,5,-1,7,9,11,-1,13,15,-1,-1,-1,-1,-1,-1,-1],"loss_changes":[1.0993364E1,1.4322348E0,2.8686976E0,0E0,6.9010407E-1,1.318636E0,6.232702E-2,0E0,1.2944466E-1,7.970915E-1,0E0,0E0,0E0,0E0,0E0,0E0,0E0],"parents":[2147483647,0,0,1,1,2,2,4,4,5,5,6,6,8,8,9,9],"right_children":[2,4,6,-1,8,10,12,-1,14,16,-1,-1,-1,-1,-1,-1,-1],"split_conditions":[5.9E1,1E0,1E0,-5.047354E-2,1E0,2E0,1E0,-2.6624426E-2,2.7E1,1.5E1,-0E0,-1.6302256E-2,-0E0,1.9084772E-2,-0E0,-0E0,4.86686E-2],"split_indices":[8,0,14,0,13,4,4,0,8,11,0,0,0,0,0,0,0],"split_type":[0,0,0,0,0,0,0,0,0,0,0,0,0,0,0,0,0],"sum_hessian":[9.283357E1,4.124359E1,5.1589977E1,2.7592379E1,1.3651215E1,4.5745728E1,5.8442516E0,6.420023E0,7.231191E0,4.31741E1,2.5716267E0,4.445312E0,1.3989396E0,4.1139326E0,3.1172585E0,3.9597409E0,3.921436E1],"tree_param":{"num_deleted":"0","num_feature":"15","num_nodes":"17","size_leaf_vector":"1"}},{"base_weights":[-7.675441E-3,3.2995516E-1,-3.3929968E-1,4.67806E-1,-0E0,-0E0,-4.4425067E-2,4.8682308E-1,-0E0,2.910008E-1,-2.0422475E-2,8.7770134E-2,-0E0,4.9934494E-1,-0E0,3.2798775E-2,-0E0,1.6983032E-2,-0E0,5.21249E-2,-0E0],"categories":[],"categories_nodes":[],"categories_segments":[],"categories_sizes":[],"default_left":[0,0,0,0,0,0,0,0,0,0,0,0,0,0,0,0,0,0,0,0,0],"id":33,"left_children":[1,3,5,7,9,11,-1,13,-1,15,-1,17,-1,19,-1,-1,-1,-1,-1,-1,-1],"loss_changes":[1.0045259E1,1.303256E0,2.2502031E0,1.3309526E-1,1.2280325E0,6.465639E-2,0E0,5.871439E-2,0E0,1.0996646E-1,0E0,1.2044451E-1,0E0,2.8857708E-2,0E0,0E0,0E0,0E0,0E0,0E0,0E0],"parents":[2147483647,0,0,1,1,2,2,3,3,4,4,5,5,7,7,9,9,11,11,13,13],"right_children":[2,4,6,8,10,12,-1,14,-1,16,-1,18,-1,20,-1,-1,-1,-1,-1,-1,-1],"split_conditions":[4.1E1,1E0,2E1,3.8E1,1.7E1,1E0,-4.4425067E-2,9E0,-0E0,1.4E1,-2.0422475E-2,7.1E1,-0E0,5E0,-0E0,3.2798775E-2,-0E0,1.6983032E-2,-0E0,5.21249E-2,-0E0],"split_indices":[9,13,8,9,8,0,0,3,0,9,0,9,0,1,0,0,0,0,0,0,0],"split_type":[0,0,0,0,0,0,0,0,0,0,0,0,0,0,0,0,0,0,0,0,0],"sum_hessian":[8.554997E1,3.9407684E1,4.614229E1,2.4554846E1,1.48528385E1,8.65809E0,3.74842E1,2.30823E1,1.4725448E0,8.278911E0,6.5739284E0,6.393013E0,2.2650762E0,2.2075592E1,1.0067092E0,7.113558E0,1.1653526E0,4.4176803E0,1.9753327E0,2.0200897E1,1.8746947E0],"tree_param":{"num_deleted":"0","num_feature":"15","num_nodes":"21","size_leaf_vector":"1"}},{"base_weights":[-0E0,-2.4681929E-1,8.541167E-2,-0E0,-4.047479E-2,1.7001992E-1,-0E0,1.103546E-1,-0E0,-0E0,2.8515962E-1,1.4054939E-1,-1.6885649E-1,-0E0,1.9989004E-2,-0E0,-1.0624825E-2,3.3658627E-1,-0E0,3.0972293E-2,-0E0,-3.3882838E-2,7.5513297E-3,4.9326033E-3,-0E0,3.709902E-2,-0E0,-4.020787E-4,-0E0],"categories":[],"categories_nodes":[],"categories_segments":[],"categories_sizes":[],"default_left":[0,0,0,0,0,0,0,0,0,0,0,0,0,0,0,0,0,0,0,0,0,0,0,0,0,0,0,0,0],"id":34,"left_children":[1,3,5,7,-1,9,11,13,-1,15,17,19,21,-1,-1,23,-1,25,-1,-1,27,-1,-1,-1,-1,-1,-1,-1,-1],"loss_changes":[1.924228E0,1.5139037E0,7.73691E-1,6.495E-2,0E0,1.3815145E0,8.778752E-1,9.538355E-2,0E0,7.532676E-2,6.957922E-1,6.593319E-1,1.4139884E0,0E0,0E0,1.6603459E-2,0E0,7.342863E-2,0E0,0E0,1.0113177E-4,0E0,0E0,0E0,0E0,0E0,0E0,0E0,0E0],"parents":[2147483647,0,0,1,1,2,2,3,3,5,5,6,6,7,7,9,9,10,10,11,11,12,12,15,15,17,17,20,20],"right_children":[2,4,6,8,-1,10,12,14,-1,16,18,20,22,-1,-1,24,-1,26,-1,-1,28,-1,-1,-1,-1,-1,-1,-1,-1],"split_conditions":[1.5E1,1E0,1E0,1.3E1,-4.047479E-2,1E0,1E0,1E0,-0E0,5.9E1,1E1,1E0,1E0,-0E0,1.9989004E-2,1E0,-1.0624825E-2,8.3E1,-0E0,3.0972293E-2,1E0,-3.3882838E-2,7.5513297E-3,4.9326033E-3,-0E0,3.709902E-2,-0E0,-4.020787E-4,-0E0],"split_indices":[8,14,0,8,0,3,7,0,0,8,1,14,14,0,0,14,0,8,0,0,12,0,0,0,0,0,0,0,0],"split_type":[0,0,0,0,0,0,0,0,0,0,0,0,0,0,0,0,0,0,0,0,0,0,0,0,0,0,0,0,0],"sum_hessian":[9.620349E1,2.0251503E1,7.595199E1,4.7356644E0,1.551584E1,4.443765E1,3.151434E1,3.3333275E0,1.4023371E0,1.294022E1,3.1497427E1,1.3382739E1,1.81316E1,1.3205781E0,2.0127494E0,8.267457E0,4.672763E0,2.818501E1,3.3124158E0,8.040881E0,5.341858E0,1.5064614E1,3.0669856E0,4.824113E0,3.4433444E0,2.3379665E1,4.8053455E0,4.255551E0,1.086307E0],"tree_param":{"num_deleted":"0","num_feature":"15","num_nodes":"29","size_leaf_vector":"1"}},{"base_weights":[2.046002E-2,2.6859382E-1,-4.4350795E-2,-0E0,3.9080033E-1,-2.9325187E-1,1.4497461E-2,-0E0,4.255986E-2,-3.4320276E-2,-0E0],"categories":[],"categories_nodes":[],"categories_segments":[],"categories_sizes":[],"default_left":[0,0,0,0,0,0,0,0,0,0,0],"id":35,"left_children":[1,3,-1,5,7,9,-1,-1,-1,-1,-1],"loss_changes":[1.0687883E1,2.746067E0,0E0,1.0978186E0,1.1206217E0,1.8978679E-1,0E0,0E0,0E0,0E0,0E0],"parents":[2147483647,0,0,1,1,3,3,4,4,5,5],"right_children":[2,4,-1,6,8,10,-1,-1,-1,-1,-1],"split_conditions":[1E0,1E0,-4.4350795E-2,7E1,1.1E1,1E1,1.4497461E-2,-0E0,4.255986E-2,-3.4320276E-2,-0E0],"split_indices":[14,13,0,8,10,1,0,0,0,0,0],"split_type":[0,0,0,0,0,0,0,0,0,0,0],"sum_hessian":[9.180551E1,6.3172943E1,2.8632568E1,1.6406727E1,4.6766216E1,8.294358E0,8.112369E0,1.4618549E0,4.530436E1,7.1271296E0,1.1672292E0],"tree_param":{"num_deleted":"0","num_feature":"15","num_nodes":"11","size_leaf_vector":"1"}},{"base_weights":[-0E0,-4.6397215E-1,4.0340373E-1,-0E0,-5.027577E-2,5.0481564E-1,-1.3974321E-2,5.247913E-2,-0E0],"categories":[],"categories_nodes":[],"categories_segments":[],"categories_sizes":[],"default_left":[0,0,0,0,0,0,0,0,0],"id":36,"left_children":[1,3,5,-1,-1,7,-1,-1,-1],"loss_changes":[1.6667496E1,6.876297E-1,3.5707383E0,0E0,0E0,2.6001835E-1,0E0,0E0,0E0],"parents":[2147483647,0,0,1,1,2,2,5,5],"right_children":[2,4,6,-1,-1,8,-1,-1,-1],"split_conditions":[1E0,1.1E1,7.5E1,-0E0,-5.027577E-2,8.6E1,-1.3974321E-2,5.247913E-2,-0E0],"split_indices":[14,9,9,0,0,11,0,0,0],"split_type":[0,0,0,0,0,0,0,0,0],"sum_hessian":[8.5386406E1,3.8377174E1,4.700923E1,3.2691126E0,3.510806E1,4.2834854E1,4.1743784E0,4.0430748E1,2.4041033E0],"tree_param":{"num_deleted":"0","num_feature":"15","num_nodes":"9","size_leaf_vector":"1"}},{"base_weights":[-0E0,-2.2772343E-1,7.446849E-2,-2.8756663E-1,-0E0,1.9762039E-1,-1.5683774E-2,-3.465854E-2,-0E0,-0E0,2.7143902E-1,7.6757E-4,-1.5056586E-1,-4.8139933E-4,-0E0,3.034728E-1,-0E0,-0E0,1.3476244E-1,-0E0,-2.9401362E-2,-0E0,3.3973824E-2,-1.0496859E-2,-0E0,3.935774E-2,-0E0],"categories":[],"categories_nodes":[],"categories_segments":[],"categories_sizes":[],"default_left":[0,0,0,0,0,0,0,0,0,0,0,0,0,0,0,0,0,0,0,0,0,0,0,0,0,0,0],"id":37,"left_children":[1,3,5,7,-1,9,11,-1,-1,13,15,17,19,-1,-1,21,-1,23,25,-1,-1,-1,-1,-1,-1,-1,-1],"loss_changes":[1.4826972E0,4.175136E-1,1.2645266E0,2.618332E-1,0E0,1.1690233E0,3.8634735E-1,0E0,0E0,1.10379115E-4,5.9942603E-1,2.5834867E-1,6.35617E-1,0E0,0E0,5.897231E-1,0E0,8.503009E-2,5.9310263E-1,0E0,0E0,0E0,0E0,0E0,0E0,0E0,0E0],"parents":[2147483647,0,0,1,1,2,2,3,3,5,5,6,6,9,9,10,10,11,11,12,12,15,15,17,17,18,18],"right_children":[2,4,6,8,-1,10,12,-1,-1,14,16,18,20,-1,-1,22,-1,24,26,-1,-1,-1,-1,-1,-1,-1,-1],"split_conditions":[1.5E1,5E0,1E0,1E0,-0E0,7E0,1E0,-3.465854E-2,-0E0,3E0,8.8E1,4.4E1,4.1E1,-4.8139933E-4,-0E0,1.1E1,-0E0,2.9E1,3E1,-0E0,-2.9401362E-2,-0E0,3.3973824E-2,-1.0496859E-2,-0E0,3.935774E-2,-0E0],"split_indices":[8,1,7,0,0,10,0,0,0,10,8,10,11,0,0,11,0,11,11,0,0,0,0,0,0,0,0],"split_type":[0,0,0,0,0,0,0,0,0,0,0,0,0,0,0,0,0,0,0,0,0,0,0,0,0,0,0],"sum_hessian":[9.654011E1,1.7976208E1,7.85639E1,1.5575994E1,2.400215E0,4.157339E1,3.699051E1,1.2279487E1,3.2965074E0,4.610796E0,3.6962597E1,2.1525885E1,1.54646225E1,2.762949E0,1.8478471E0,3.5679886E1,1.2827092E0,9.299589E0,1.2226296E1,5.531563E0,9.93306E0,2.5056772E0,3.317421E1,5.7170954E0,3.5824935E0,3.496758E0,8.729538E0],"tree_param":{"num_deleted":"0","num_feature":"15","num_nodes":"27","size_leaf_vector":"1"}},{"base_weights":[-7.888469E-3,1.8349606E-1,-4.665317E-1,-0E0,3.031989E-1,-4.8819717E-2,-0E0,-1.6089427E-1,-0E0,-0E0,4.0209085E-1,-1.8257293E-1,-0E0,-0E0,1.637908E-1,-1.7191422E-3,6.129369E-2,-0E0,4.4878863E-2,-0E0,-2.2476375E-2,-7.0855888E-3,-0E0,1.8810729E-2,-0E0,-0E0,-9.396195E-3,-0E0,8.728902E-3],"categories":[],"categories_nodes":[],"categories_segments":[],"categories_sizes":[],"default_left":[0,0,0,0,0,0,0,0,0,0,0,0,0,0,0,0,0,0,0,0,0,0,0,0,0,0,0,0,0],"id":38,"left_children":[1,3,5,7,9,-1,-1,11,13,15,17,19,-1,21,23,25,27,-1,-1,-1,-1,-1,-1,-1,-1,-1,-1,-1,-1],"loss_changes":[8.510501E0,1.8720081E0,8.515644E-2,2.7300945E-1,1.08041E0,0E0,0E0,2.5364012E-2,1.9778787E-1,3.1042252E-2,6.644349E-1,7.384035E-2,0E0,2.5834566E-2,2.0232394E-2,5.2927274E-2,2.2123517E-2,0E0,0E0,0E0,0E0,0E0,0E0,0E0,0E0,0E0,0E0,0E0,0E0],"parents":[2147483647,0,0,1,1,2,2,3,3,4,4,7,7,8,8,9,9,10,10,11,11,13,13,14,14,15,15,16,16],"right_children":[2,4,6,8,10,-1,-1,12,14,16,18,20,-1,22,24,26,28,-1,-1,-1,-1,-1,-1,-1,-1,-1,-1,-1,-1],"split_conditions":[1E0,5.9E1,7.1E1,5.7E1,1E0,-4.8819717E-2,-0E0,2E0,1E0,7.9E1,2E1,1.1E1,-0E0,9.6E1,8E0,4E0,7.6E1,-0E0,4.4878863E-2,-0E0,-2.2476375E-2,-7.0855888E-3,-0E0,1.8810729E-2,-0E0,-0E0,-9.396195E-3,-0E0,8.728902E-3],"split_indices":[14,8,8,9,12,0,0,4,0,8,11,8,0,9,5,5,9,0,0,0,0,0,0,0,0,0,0,0,0],"split_type":[0,0,0,0,0,0,0,0,0,0,0,0,0,0,0,0,0,0,0,0,0,0,0,0,0,0,0,0,0],"sum_hessian":[8.655618E1,5.8841644E1,2.7714539E1,1.8193834E1,4.064781E1,2.549298E1,2.2215593E0,8.546212E0,9.647622E0,1.1715744E1,2.8932068E1,6.9513264E0,1.5948857E0,4.2750244E0,5.372598E0,5.458918E0,6.2568264E0,2.8033452E0,2.6128721E1,1.5834901E0,5.367836E0,3.1457574E0,1.1292667E0,4.161488E0,1.2111101E0,1.4616101E0,3.997308E0,1.2820106E0,4.974816E0],"tree_param":{"num_deleted":"0","num_feature":"15","num_nodes":"29","size_leaf_vector":"1"}},{"base_weights":[-0E0,3.7387925E-1,-2.8614244E-1,4.702619E-2,-0E0,-0E0,-4.1037202E-1,-0E0,-2.8240194E-3,1.7876004E-1,-1.9199923E-3,-0E0,-4.4239517E-2,2.1443893E-1,-0E0,-0E0,2.7500827E-2],"categories":[],"categories_nodes":[],"categories_segments":[],"categories_sizes":[],"default_left":[0,0,0,0,0,0,0,0,0,0,0,0,0,0,0,0,0],"id":39,"left_children":[1,3,5,-1,7,9,11,-1,-1,13,-1,-1,-1,15,-1,-1,-1],"loss_changes":[9.304678E0,2.1377401E0,2.4176757E0,0E0,4.080538E-3,3.176489E-1,3.295288E-1,0E0,0E0,7.2695196E-2,0E0,0E0,0E0,1.2899864E-1,0E0,0E0,0E0],"parents":[2147483647,0,0,1,1,2,2,4,4,5,5,6,6,9,9,13,13],"right_children":[2,4,6,-1,8,10,12,-1,-1,14,-1,-1,-1,16,-1,-1,-1],"split_conditions":[1.7E1,7.1E1,2.3E1,4.702619E-2,8E0,1E0,1.5E1,-0E0,-2.8240194E-3,5E0,-1.9199923E-3,-0E0,-4.4239517E-2,2.8E1,-0E0,-0E0,2.7500827E-2],"split_indices":[10,9,8,0,10,0,9,0,0,3,0,0,0,10,0,0,0],"split_type":[0,0,0,0,0,0,0,0,0,0,0,0,0,0,0,0,0],"sum_hessian":[8.272545E1,3.6057053E1,4.66684E1,3.1722351E1,4.3347006E0,1.0649843E1,3.6018555E1,1.2180936E0,3.116607E0,7.885498E0,2.764345E0,3.621071E0,3.2397484E1,6.4504895E0,1.4350086E0,1.6067815E0,4.843708E0],"tree_param":{"num_deleted":"0","num_feature":"15","num_nodes":"17","size_leaf_vector":"1"}},{"base_weights":[-0E0,-7.876587E-2,1.0170355E-1,1.1721462E-1,-2.611294E-1,2.2497922E-1,-1.2364082E-1,3.1625295E-1,-0E0,-3.2481936E-1,-0E0,3.7180525E-1,-0E0,-1.8107064E-2,-0E0,-0E0,4.3390676E-2,-0E0,-3.2971357E-3,-0E0,-3.5463694E-1,-0E0,5.3698754E-1,-0E0,-3.7207548E-2,3.3963174E-3,-0E0,-0E0,5.9184562E-2],"categories":[],"categories_nodes":[],"categories_segments":[],"categories_sizes":[],"default_left":[0,0,0,0,0,0,0,0,0,0,0,0,0,0,0,0,0,0,0,0,0,0,0,0,0,0,0,0,0],"id":40,"left_children":[1,3,5,7,9,11,13,15,17,19,-1,21,-1,-1,-1,-1,-1,-1,-1,-1,23,25,27,-1,-1,-1,-1,-1,-1],"loss_changes":[7.5030684E-1,2.0956385E0,1.4591124E0,9.7561955E-1,8.2150793E-1,9.67008E-1,9.635949E-2,4.454832E-1,8.807839E-3,3.8489532E-1,0E0,8.520155E-1,0E0,0E0,0E0,0E0,0E0,0E0,0E0,0E0,1.8771482E-1,7.0368447E-3,2.8643584E-1,0E0,0E0,0E0,0E0,0E0,0E0],"parents":[2147483647,0,0,1,1,2,2,3,3,4,4,5,5,6,6,7,7,8,8,9,9,11,11,20,20,21,21,22,22],"right_children":[2,4,6,8,10,12,14,16,18,20,-1,22,-1,-1,-1,-1,-1,-1,-1,-1,24,26,28,-1,-1,-1,-1,-1,-1],"split_conditions":[7.1E1,1E0,9.2E1,1E0,7.1E1,5.5E1,5E0,1E0,1.7E1,2E0,-0E0,4E0,-0E0,-1.8107064E-2,-0E0,-0E0,4.3390676E-2,-0E0,-3.2971357E-3,-0E0,4E0,2.8E1,7.4E1,-0E0,-3.7207548E-2,3.3963174E-3,-0E0,-0E0,5.9184562E-2],"split_indices":[9,14,9,7,11,11,5,3,9,1,0,3,0,0,0,0,0,0,0,0,11,11,9,0,0,0,0,0,0],"split_type":[0,0,0,0,0,0,0,0,0,0,0,0,0,0,0,0,0,0,0,0,0,0,0,0,0,0,0,0,0],"sum_hessian":[8.809606E1,4.6869827E1,4.122624E1,1.7649664E1,2.9220161E1,3.238721E1,8.839028E0,1.0453933E1,7.1957316E0,2.596354E1,3.2566233E0,1.7585909E1,1.4801303E1,5.992793E0,2.846235E0,3.471997E0,6.9819355E0,1.0936654E0,6.102066E0,1.4442476E0,2.451929E1,7.2415886E0,1.0344319E1,1.0716441E0,2.3447647E1,4.1004434E0,3.141145E0,1.3646002E0,8.979719E0],"tree_param":{"num_deleted":"0","num_feature":"15","num_nodes":"29","size_leaf_vector":"1"}},{"base_weights":[-0E0,-3.3226505E-1,1.748109E-1,-4.084105E-2,-0E0,-1.12612374E-1,2.593454E-1,-4.981959E-2,-0E0,-2.016618E-2,-0E0,-0E0,3.633224E-1,-9.212328E-3,-0E0,-5.3182803E-2,1.7887115E-1,3.8104236E-2,5.175217E-2,-1.9490307E-2,-0E0,3.3927467E-2,-0E0,-0E0,1.5177569E-2],"categories":[],"categories_nodes":[],"categories_segments":[],"categories_sizes":[],"default_left":[0,0,0,0,0,0,0,0,0,0,0,0,0,0,0,0,0,0,0,0,0,0,0,0,0],"id":41,"left_children":[1,3,5,-1,7,9,11,13,-1,-1,-1,15,17,-1,-1,19,21,23,-1,-1,-1,-1,-1,-1,-1],"loss_changes":[5.4010735E0,5.006864E-1,1.7357537E0,0E0,1.7853001E-2,1.5583906E-1,9.1481805E-1,3.33535E-2,0E0,0E0,0E0,3.5529092E-1,4.743204E-1,0E0,0E0,2.9472166E-1,5.838767E-1,2.7191997E-1,0E0,0E0,0E0,0E0,0E0,0E0,0E0],"parents":[2147483647,0,0,1,1,2,2,4,4,5,5,6,6,7,7,11,11,12,12,15,15,16,16,17,17],"right_children":[2,4,6,-1,8,10,12,14,-1,-1,-1,16,18,-1,-1,20,22,24,-1,-1,-1,-1,-1,-1,-1],"split_conditions":[5.1E1,1E0,1.4E1,-4.084105E-2,1E0,9.1E1,1E0,1E0,-0E0,-2.016618E-2,-0E0,8.8E1,1E0,-9.212328E-3,-0E0,1E0,1E0,1E0,5.175217E-2,-1.9490307E-2,-0E0,3.3927467E-2,-0E0,-0E0,1.5177569E-2],"split_indices":[9,7,11,0,12,9,7,0,0,0,0,9,0,0,0,0,0,12,0,0,0,0,0,0,0],"split_type":[0,0,0,0,0,0,0,0,0,0,0,0,0,0,0,0,0,0,0,0,0,0,0,0,0],"sum_hessian":[8.611344E1,3.1157194E1,5.4956245E1,2.2947624E1,8.209569E0,6.9619303E0,4.7994316E1,5.1930137E0,3.0165546E0,4.6266756E0,2.3352547E0,1.759026E1,3.0404055E1,4.033736E0,1.1592777E0,9.502487E0,8.087773E0,1.4753093E1,1.5650963E1,6.614887E0,2.8876E0,5.8764224E0,2.2113504E0,3.892955E0,1.0860138E1],"tree_param":{"num_deleted":"0","num_feature":"15","num_nodes":"25","size_leaf_vector":"1"}},{"base_weights":[-0E0,-4.1261232E-1,3.6844438E-1,-0E0,-4.336801E-2,4.7518268E-1,-0E0,5.393345E-2,1.9942217E-2,-0E0,-7.413674E-3,3.1318054E-2,-5.4721762E-3],"categories":[],"categories_nodes":[],"categories_segments":[],"categories_sizes":[],"default_left":[0,0,0,0,0,0,0,0,0,0,0,0,0],"id":42,"left_children":[1,3,5,-1,-1,7,9,-1,11,-1,-1,-1,-1],"loss_changes":[1.2817062E1,5.030713E-1,2.6879668E0,0E0,0E0,6.3943863E-3,3.0599004E-2,0E0,7.871289E-1,0E0,0E0,0E0,0E0],"parents":[2147483647,0,0,1,1,2,2,5,5,6,6,8,8],"right_children":[2,4,6,-1,-1,8,10,-1,12,-1,-1,-1,-1],"split_conditions":[1E0,7E0,5.1E1,-0E0,-4.336801E-2,1E0,4E0,5.393345E-2,1.3E1,-0E0,-7.413674E-3,3.1318054E-2,-5.4721762E-3],"split_indices":[14,8,8,0,0,12,3,0,8,0,0,0,0],"split_type":[0,0,0,0,0,0,0,0,0,0,0,0,0],"sum_hessian":[8.050298E1,3.7007694E1,4.349529E1,1.023065E0,3.598463E1,3.725627E1,6.2390165E0,2.8480162E1,8.776112E0,2.6717715E0,3.567245E0,5.9206653E0,2.8554463E0],"tree_param":{"num_deleted":"0","num_feature":"15","num_nodes":"13","size_leaf_vector":"1"}},{"base_weights":[-0E0,-2.0743327E-1,7.159429E-2,-3.153062E-2,-0E0,1.7862254E-1,-1.1902882E-1,1.9377109E-3,-0E0,-0E0,2.778075E-1,-1.5326023E-1,-0E0,-4.2215217E-2,1.4004586E-2,3.0441552E-1,-0E0,-0E0,-1.6890797E-1,-1.3345532E-2,-0E0,1.6178025E-2,-0E0,-0E0,3.212237E-2,-0E0,-2.0837981E-2],"categories":[],"categories_nodes":[],"categories_segments":[],"categories_sizes":[],"default_left":[0,0,0,0,0,0,0,0,0,0,0,0,0,0,0,0,0,0,0,0,0,0,0,0,0,0,0],"id":43,"left_children":[1,3,5,-1,7,9,11,-1,-1,13,15,17,-1,19,21,23,-1,-1,25,-1,-1,-1,-1,-1,-1,-1,-1],"loss_changes":[1.2511162E0,7.1220124E-1,1.8085415E0,0E0,1.538968E-3,1.1963178E0,5.3292632E-2,0E0,0E0,2.8688623E-2,4.5968175E-1,2.3458391E-2,0E0,1.6250764E-1,1.7221202E-1,3.0944824E-2,0E0,0E0,8.778277E-2,0E0,0E0,0E0,0E0,0E0,0E0,0E0,0E0],"parents":[2147483647,0,0,1,1,2,2,4,4,5,5,6,6,9,9,10,10,11,11,13,13,14,14,15,15,18,18],"right_children":[2,4,6,-1,8,10,12,-1,-1,14,16,18,-1,20,22,24,-1,-1,26,-1,-1,-1,-1,-1,-1,-1,-1],"split_conditions":[1.5E1,1E0,8E1,-3.153062E-2,1.3E1,2.1E1,5E0,1.9377109E-3,-0E0,1E0,8.5E1,3.3E1,-0E0,1E0,5.1E1,2.3E1,-0E0,-0E0,1E0,-1.3345532E-2,-0E0,1.6178025E-2,-0E0,-0E0,3.212237E-2,-0E0,-2.0837981E-2],"split_indices":[8,0,8,0,8,10,3,0,0,12,10,10,0,0,8,8,0,0,13,0,0,0,0,0,0,0,0],"split_type":[0,0,0,0,0,0,0,0,0,0,0,0,0,0,0,0,0,0,0,0,0,0,0,0,0,0,0],"sum_hessian":[9.617973E1,1.7460838E1,7.8718895E1,1.3586446E1,3.874393E0,5.7213383E1,2.150551E1,2.0987523E0,1.7756406E0,1.9232819E1,3.7980564E1,1.4446863E1,7.058647E0,1.3215678E1,6.01714E0,3.6257347E1,1.7232187E0,2.0839036E0,1.2362959E1,8.646851E0,4.5688276E0,4.6398735E0,1.3772665E0,3.599019E0,3.2658325E1,2.904369E0,9.45859E0],"tree_param":{"num_deleted":"0","num_feature":"15","num_nodes":"27","size_leaf_vector":"1"}},{"base_weights":[-0E0,-3.57908E-1,3.030387E-1,-0E0,-3.7554577E-1,4.038366E-1,-4.075453E-3,-3.9979734E-2,-0E0,4.270676E-1,-0E0,-0E0,-1.2496352E-2,-0E0,4.420366E-2],"categories":[],"categories_nodes":[],"categories_segments":[],"categories_sizes":[],"default_left":[0,0,0,0,0,0,0,0,0,0,0,0,0,0,0],"id":44,"left_children":[1,3,5,-1,7,9,11,-1,-1,13,-1,-1,-1,-1,-1],"loss_changes":[9.223612E0,3.2026148E-1,2.1997075E0,0E0,2.1411705E-1,4.669404E-1,9.3349576E-2,0E0,0E0,7.2649E-2,0E0,0E0,0E0,0E0,0E0],"parents":[2147483647,0,0,1,1,2,2,4,4,5,5,6,6,9,9],"right_children":[2,4,6,-1,8,10,12,-1,-1,14,-1,-1,-1,-1,-1],"split_conditions":[5.9E1,4E0,1E0,-0E0,5.1E1,2E0,1E0,-3.9979734E-2,-0E0,1.5E1,-0E0,-0E0,-1.2496352E-2,-0E0,4.420366E-2],"split_indices":[8,11,14,0,8,4,13,0,0,11,0,0,0,0,0],"split_type":[0,0,0,0,0,0,0,0,0,0,0,0,0,0,0],"sum_hessian":[8.077937E1,3.765491E1,4.312446E1,1.3665601E0,3.6288353E1,3.6896893E1,6.227568E0,3.3123714E1,3.1646395E0,3.5340435E1,1.5564554E0,2.2409565E0,3.9866118E0,2.114346E0,3.322609E1],"tree_param":{"num_deleted":"0","num_feature":"15","num_nodes":"15","size_leaf_vector":"1"}},{"base_weights":[-3.935716E-2,-4.022488E-1,2.5782517E-1,-0E0,-4.5180283E-2,3.9138836E-1,-1.11908056E-1,4.3209317E-1,-0E0,-0E0,-1.383353E-2,4.4288123E-1,-0E0,-0E0,4.548608E-2],"categories":[],"categories_nodes":[],"categories_segments":[],"categories_sizes":[],"default_left":[0,0,0,0,0,0,0,0,0,0,0,0,0,0,0],"id":45,"left_children":[1,3,5,-1,-1,7,9,11,-1,-1,-1,13,-1,-1,-1],"loss_changes":[8.377088E0,8.9621925E-1,2.5410707E0,0E0,0E0,8.7613964E-1,2.481033E-2,3.2581806E-2,0E0,0E0,0E0,2.991581E-2,0E0,0E0,0E0],"parents":[2147483647,0,0,1,1,2,2,5,5,6,6,7,7,11,11],"right_children":[2,4,6,-1,-1,8,10,12,-1,-1,-1,14,-1,-1,-1],"split_conditions":[1E0,1.1E1,6.6E1,-0E0,-4.5180283E-2,7.1E1,2E1,5.9E1,-0E0,-0E0,-1.383353E-2,5E0,-0E0,-0E0,4.548608E-2],"split_indices":[14,11,9,0,0,11,8,8,0,0,0,11,0,0,0],"split_type":[0,0,0,0,0,0,0,0,0,0,0,0,0,0,0],"sum_hessian":[7.107544E1,3.4711613E1,3.6363827E1,3.2209487E0,3.1490665E1,3.060146E1,5.7623677E0,2.9441069E1,1.160392E0,1.3860365E0,4.376331E0,2.8094103E1,1.3469656E0,1.4196967E0,2.6674406E1],"tree_param":{"num_deleted":"0","num_feature":"15","num_nodes":"15","size_leaf_vector":"1"}},{"base_weights":[2.6012817E-2,1.0097574E-1,-3.5442714E-2,-0E0,3.6016938E-1,-1.925675E-1,1.2131724E-1,1.7501095E-1,-1.2001083E-1,6.100576E-2,-0E0,-2.5824696E-1,-0E0,-0E0,1.9830799E-2,2.4483865E-1,-0E0,-0E0,-2.4176763E-1,-2.8053218E-2,-0E0,-0E0,3.262637E-2,-0E0,7.972442E-4,-2.8686443E-2,-0E0],"categories":[],"categories_nodes":[],"categories_segments":[],"categories_sizes":[],"default_left":[0,0,0,0,0,0,0,0,0,0,0,0,0,0,0,0,0,0,0,0,0,0,0,0,0,0,0],"id":46,"left_children":[1,3,5,7,9,11,13,15,17,-1,-1,19,-1,-1,-1,21,-1,23,25,-1,-1,-1,-1,-1,-1,-1,-1],"loss_changes":[5.496119E-1,1.656599E0,1.0732211E0,8.565614E-1,2.13388E0,6.166643E-1,2.7514523E-1,3.4182885E-1,5.132121E-1,0E0,0E0,1.2329507E-1,0E0,0E0,0E0,3.051437E-1,0E0,6.5257726E-4,7.150072E-2,0E0,0E0,0E0,0E0,0E0,0E0,0E0,0E0],"parents":[2147483647,0,0,1,1,2,2,3,3,4,4,5,5,6,6,7,7,8,8,11,11,15,15,17,17,18,18],"right_children":[2,4,6,8,10,12,14,16,18,-1,-1,20,-1,-1,-1,22,-1,24,26,-1,-1,-1,-1,-1,-1,-1,-1],"split_conditions":[1E0,5E0,1E0,1E0,5.5E1,7.1E1,1E0,8.1E1,1E0,6.100576E-2,-0E0,2E0,-0E0,-0E0,1.9830799E-2,1.9E1,-0E0,4E0,7.5E1,-2.8053218E-2,-0E0,-0E0,3.262637E-2,-0E0,7.972442E-4,-2.8686443E-2,-0E0],"split_indices":[14,3,12,12,11,11,5,11,7,0,0,2,0,0,0,11,0,5,11,0,0,0,0,0,0,0,0],"split_type":[0,0,0,0,0,0,0,0,0,0,0,0,0,0,0,0,0,0,0,0,0,0,0,0,0,0,0],"sum_hessian":[8.729854E1,5.340874E1,3.3889797E1,3.8283257E1,1.5125485E1,2.3068811E1,1.0820986E1,1.3257557E1,2.50257E1,9.702795E0,5.42269E0,2.1185446E1,1.8833661E0,1.0261904E0,9.794795E0,1.149799E1,1.7595677E0,1.1586386E1,1.3439313E1,1.9214775E1,1.9706708E0,3.0300283E0,8.467961E0,3.3192503E0,8.267136E0,9.835446E0,3.6038666E0],"tree_param":{"num_deleted":"0","num_feature":"15","num_nodes":"27","size_leaf_vector":"1"}},{"base_weights":[-4.1072224E-3,-1.7320259E-1,3.37241E-1,-4.090141E-2,3.897597E-2,4.336191E-1,-0E0,-5.612072E-2,1.644724E-1,-0E0,4.537315E-1,-1.6369052E-1,-0E0,2.50134E-1,-0E0,-0E0,5.284368E-2,-2.1644883E-2,-0E0,2.7959634E-2,-0E0],"categories":[],"categories_nodes":[],"categories_segments":[],"categories_sizes":[],"default_left":[0,0,0,0,0,0,0,0,0,0,0,0,0,0,0,0,0,0,0,0,0],"id":47,"left_children":[1,3,5,-1,7,9,-1,11,13,-1,15,17,-1,19,-1,-1,-1,-1,-1,-1,-1],"loss_changes":[4.886529E0,3.9891896E0,9.7421694E-1,0E0,6.0760933E-1,2.1017551E-2,0E0,1.9694573E-1,4.860955E-1,0E0,6.217668E-1,1.1634286E-1,0E0,3.3763528E-2,0E0,0E0,0E0,0E0,0E0,0E0,0E0],"parents":[2147483647,0,0,1,1,2,2,4,4,5,5,7,7,8,8,10,10,11,11,13,13],"right_children":[2,4,6,-1,8,10,-1,12,14,-1,16,18,-1,20,-1,-1,-1,-1,-1,-1,-1],"split_conditions":[8.8E1,1E0,6E0,-4.090141E-2,2.4E1,8.9E1,-0E0,2E0,8.1E1,-0E0,1E0,6E0,-0E0,1E1,-0E0,-0E0,5.284368E-2,-2.1644883E-2,-0E0,2.7959634E-2,-0E0],"split_indices":[9,7,5,0,11,9,0,4,9,0,5,1,0,5,0,0,0,0,0,0,0],"split_type":[0,0,0,0,0,0,0,0,0,0,0,0,0,0,0,0,0,0,0,0,0],"sum_hessian":[8.631857E1,6.2300682E1,2.4017895E1,3.3092693E1,2.9207987E1,1.8918812E1,5.0990834E0,8.179085E0,2.1028904E1,1.711328E0,1.7207483E1,6.546694E0,1.632391E0,1.5725862E1,5.3030415E0,2.8202667E0,1.4387217E1,5.37134E0,1.1753538E0,1.2618878E1,3.1069827E0],"tree_param":{"num_deleted":"0","num_feature":"15","num_nodes":"21","size_leaf_vector":"1"}},{"base_weights":[-5.7337205E-3,2.43689E-1,-3.1403285E-1,3.6759287E-2,-0E0,1.7351873E-2,-4.2415646E-1,1.1072307E-3,-9.954574E-2,-4.6567127E-2,-0E0,-1.7522287E-1,-0E0,-0E0,-2.1867538E-2],"categories":[],"categories_nodes":[],"categories_segments":[],"categories_sizes":[],"default_left":[0,0,0,0,0,0,0,0,0,0,0,0,0,0,0],"id":48,"left_children":[1,3,5,-1,7,-1,9,-1,11,-1,-1,13,-1,-1,-1],"loss_changes":[6.157335E0,1.5260906E0,2.7188725E0,0E0,9.5342055E-2,0E0,3.452983E-1,0E0,1.6228256E-1,0E0,0E0,6.300852E-2,0E0,0E0,0E0],"parents":[2147483647,0,0,1,1,2,2,4,4,6,6,8,8,11,11],"right_children":[2,4,6,-1,8,-1,10,-1,12,-1,-1,14,-1,-1,-1],"split_conditions":[4.1E1,2.2E1,9E0,3.6759287E-2,1.1E1,1.7351873E-2,1E1,1.1072307E-3,3.6E1,-4.6567127E-2,-0E0,2.5E1,-0E0,-0E0,-2.1867538E-2],"split_indices":[9,10,10,0,8,0,1,0,9,0,0,10,0,0,0],"split_type":[0,0,0,0,0,0,0,0,0,0,0,0,0,0,0],"sum_hessian":[7.425276E1,3.7691338E1,3.6561424E1,2.673745E1,1.0953886E1,3.178123E0,3.33833E1,3.3992655E0,7.5546207E0,2.8947985E1,4.435316E0,6.369287E0,1.1853336E0,1.6779773E0,4.69131E0],"tree_param":{"num_deleted":"0","num_feature":"15","num_nodes":"15","size_leaf_vector":"1"}},{"base_weights":[-0E0,-1.23253934E-1,1.2347323E-1,-2.5732505E-1,-0E0,2.339322E-1,-5.019541E-3,-2.7732614E-1,-0E0,-0E0,-1.9133482E-2,2.6858845E-1,-0E0,-0E0,-1.1741549E-1,-2.9172545E-2,-0E0,-0E0,1.4341354E-2,-0E0,-1.3309486E-1,-0E0,2.9619998E-1,-1.6938978E-1,-0E0,-6.4656013E-3,-0E0,-0E0,7.045346E-3,-1.4987557E-2,-0E0,3.1692095E-2,-0E0,-0E0,-2.2869332E-2],"categories":[],"categories_nodes":[],"categories_segments":[],"categories_sizes":[],"default_left":[0,0,0,0,0,0,0,0,0,0,0,0,0,0,0,0,0,0,0,0,0,0,0,0,0,0,0,0,0,0,0,0,0,0,0],"id":49,"left_children":[1,3,5,7,9,11,13,15,-1,17,19,21,-1,-1,23,-1,-1,25,-1,27,29,-1,31,33,-1,-1,-1,-1,-1,-1,-1,-1,-1,-1,-1],"loss_changes":[1.4616123E0,4.6309268E-1,1.2252145E0,9.1772676E-2,7.1035563E-3,5.5433846E-1,2.2963971E-1,2.3409486E-2,0E0,1.10702634E-1,2.0541339E-1,4.2532706E-1,0E0,0E0,2.1910572E-1,0E0,0E0,2.362959E-2,0E0,3.8159303E-2,9.970918E-3,0E0,3.0555654E-1,2.2969964E-1,0E0,0E0,0E0,0E0,0E0,0E0,0E0,0E0,0E0,0E0,0E0],"parents":[2147483647,0,0,1,1,2,2,3,3,4,4,5,5,6,6,7,7,9,9,10,10,11,11,14,14,17,17,19,19,20,20,22,22,23,23],"right_children":[2,4,6,8,10,12,14,16,-1,18,20,22,-1,-1,24,-1,-1,26,-1,28,30,-1,32,34,-1,-1,-1,-1,-1,-1,-1,-1,-1,-1,-1],"split_conditions":[2.5E1,1.5E1,8E1,5E0,3E1,8.5E1,1.3E1,9E0,-0E0,1E0,1.3E1,1.1E1,-0E0,-0E0,8.6E1,-2.9172545E-2,-0E0,1.6E1,1.4341354E-2,3E0,7.4E1,-0E0,9.1E1,1E0,-0E0,-6.4656013E-3,-0E0,-0E0,7.045346E-3,-1.4987557E-2,-0E0,3.1692095E-2,-0E0,-0E0,-2.2869332E-2],"split_indices":[10,8,8,1,8,10,11,5,0,12,10,11,0,0,11,0,0,10,0,10,8,0,11,12,0,0,0,0,0,0,0,0,0,0,0],"split_type":[0,0,0,0,0,0,0,0,0,0,0,0,0,0,0,0,0,0,0,0,0,0,0,0,0,0,0,0,0,0,0,0,0,0,0],"sum_hessian":[9.2020325E1,4.0118343E1,5.1901985E1,1.4656575E1,2.5461767E1,3.53969E1,1.6505085E1,1.3533881E1,1.1226937E0,8.057922E0,1.7403845E1,3.4053032E1,1.3438699E0,1.814286E0,1.4690799E1,1.2313318E1,1.2205629E0,4.675502E0,3.38242E0,7.406892E0,9.996953E0,1.5604804E0,3.249255E1,1.3655849E1,1.0349491E0,3.6524713E0,1.0230305E0,1.7192031E0,5.687689E0,7.904776E0,2.0921767E0,3.1171816E1,1.3207344E0,2.6749105E0,1.0980939E1],"tree_param":{"num_deleted":"0","num_feature":"15","num_nodes":"35","size_leaf_vector":"1"}},{"base_weights":[-0E0,1.6874857E-1,-4.4146683E-2,-1.261783E-2,3.7334272E-1,-1.5491357E-1,5.4923702E-2,-0E0,5.0951153E-2,-2.7977569E-2,-0E0,1.7369552E-2,-0E0,-1.8583745E-3,7.834467E-2,-0E0,1.3769815E-2],"categories":[],"categories_nodes":[],"categories_segments":[],"categories_sizes":[],"default_left":[0,0,0,0,0,0,0,0,0,0,0,0,0,0,0,0,0],"id":50,"left_children":[1,3,-1,5,7,9,11,13,-1,-1,-1,-1,-1,-1,15,-1,-1],"loss_changes":[7.078071E0,2.9854412E0,0E0,4.953347E-1,1.4294152E0,1.5578839E-1,2.7115512E-1,5.4471765E-2,0E0,0E0,0E0,0E0,0E0,0E0,8.1161916E-2,0E0,0E0],"parents":[2147483647,0,0,1,1,3,3,4,4,5,5,6,6,7,7,14,14],"right_children":[2,4,-1,6,8,10,12,14,-1,-1,-1,-1,-1,-1,16,-1,-1],"split_conditions":[1E0,1E0,-4.4146683E-2,6.8E1,1E0,1.9E1,8.5E1,1E0,5.0951153E-2,-2.7977569E-2,-0E0,1.7369552E-2,-0E0,-1.8583745E-3,1E0,-0E0,1.3769815E-2],"split_indices":[14,7,0,11,12,10,11,0,0,0,0,0,0,0,13,0,0],"split_type":[0,0,0,0,0,0,0,0,0,0,0,0,0,0,0,0,0],"sum_hessian":[8.419951E1,5.8759422E1,2.544009E1,2.6960752E1,3.179867E1,1.7376448E1,9.584305E0,1.0145402E1,2.1653269E1,5.9309235E0,1.1445523E1,8.145812E0,1.4384934E0,3.5849702E0,6.5604315E0,1.5087758E0,5.051656E0],"tree_param":{"num_deleted":"0","num_feature":"15","num_nodes":"17","size_leaf_vector":"1"}},{"base_weights":[-0E0,-3.71893E-1,2.5280362E-1,-0E0,-4.560233E-1,4.5053932E-1,-0E0,-0E0,-4.8170906E-2,4.792551E-2,-0E0,3.0389601E-2,-1.7781407E-1,-0E0,9.4364835E-3,-0E0,-2.9930338E-2],"categories":[],"categories_nodes":[],"categories_segments":[],"categories_sizes":[],"default_left":[0,0,0,0,0,0,0,0,0,0,0,0,0,0,0,0,0],"id":51,"left_children":[1,3,5,-1,7,9,11,-1,-1,-1,-1,13,15,-1,-1,-1,-1],"loss_changes":[7.37166E0,1.6777143E0,2.9506185E0,0E0,3.5294342E-1,4.4431067E-1,3.729196E-1,0E0,0E0,0E0,0E0,4.329862E-2,4.672619E-1,0E0,0E0,0E0,0E0],"parents":[2147483647,0,0,1,1,2,2,4,4,5,5,6,6,11,11,12,12],"right_children":[2,4,6,-1,8,10,12,-1,-1,-1,-1,14,16,-1,-1,-1,-1],"split_conditions":[1E0,4E0,2.3E1,-0E0,1.1E1,6.1E1,2.3E1,-0E0,-4.8170906E-2,4.792551E-2,-0E0,3.2E1,3.8E1,-0E0,9.4364835E-3,-0E0,-2.9930338E-2],"split_indices":[14,10,10,0,9,9,8,0,0,0,0,10,9,0,0,0,0],"split_type":[0,0,0,0,0,0,0,0,0,0,0,0,0,0,0,0,0],"sum_hessian":[7.206843E1,3.1740995E1,4.0327435E1,3.2335618E0,2.8507435E1,2.5862806E1,1.4464629E1,1.6456832E0,2.6861752E1,2.455833E1,1.3044753E0,4.870723E0,9.593906E0,1.2957108E0,3.5750122E0,2.2858832E0,7.3080235E0],"tree_param":{"num_deleted":"0","num_feature":"15","num_nodes":"17","size_leaf_vector":"1"}},{"base_weights":[-0E0,-1.8364994E-1,6.3336015E-2,-2.2804504E-2,-0E0,2.0395438E-1,-8.602095E-3,-0E0,2.4944116E-1,-1.24953344E-1,7.0962034E-2,2.8010486E-2,-0E0,-1.7544538E-1,-0E0,2.1473739E-1,-0E0,-0E0,-2.4091175E-2,-0E0,2.7296064E-2],"categories":[],"categories_nodes":[],"categories_segments":[],"categories_sizes":[],"default_left":[0,0,0,0,0,0,0,0,0,0,0,0,0,0,0,0,0,0,0,0,0],"id":52,"left_children":[1,3,5,-1,-1,7,9,-1,11,13,15,-1,-1,17,-1,19,-1,-1,-1,-1,-1],"loss_changes":[9.3622553E-1,1.05652034E-1,1.1787739E0,0E0,0E0,5.855658E-1,5.313634E-1,0E0,4.185109E-1,3.757624E-1,3.4658262E-1,0E0,0E0,2.294426E-1,0E0,1.7818376E-1,0E0,0E0,0E0,0E0,0E0],"parents":[2147483647,0,0,1,1,2,2,5,5,6,6,8,8,9,9,10,10,13,13,15,15],"right_children":[2,4,6,-1,-1,8,10,-1,12,14,16,-1,-1,18,-1,20,-1,-1,-1,-1,-1],"split_conditions":[1.5E1,2.1E1,5.9E1,-2.2804504E-2,-0E0,7E0,6.5E1,-0E0,1E1,2E0,8E1,2.8010486E-2,-0E0,1E0,-0E0,6.5E1,-0E0,-0E0,-2.4091175E-2,-0E0,2.7296064E-2],"split_indices":[8,10,8,0,0,10,10,0,1,4,10,0,0,12,0,8,0,0,0,0,0],"split_type":[0,0,0,0,0,0,0,0,0,0,0,0,0,0,0,0,0,0,0,0,0],"sum_hessian":[9.20919E1,1.6534132E1,7.555777E1,1.2051821E1,4.4823117E0,3.3739037E1,4.1818737E1,2.434846E0,3.1304192E1,2.672834E1,1.5090395E1,2.9745703E1,1.5584872E0,2.4779686E1,1.9486547E0,7.3824134E0,7.707982E0,8.623623E0,1.6156063E1,1.1842201E0,6.198193E0],"tree_param":{"num_deleted":"0","num_feature":"15","num_nodes":"21","size_leaf_vector":"1"}},{"base_weights":[-0E0,1.6027606E-1,-3.6298305E-2,-0E0,3.141587E-1,-1.9424751E-1,6.5369844E-2,-0E0,4.771733E-2,-0E0,-3.0645425E-2,2.83767E-1,-0E0,-0E0,9.02214E-3,3.638104E-2,-0E0,-6.356742E-3,-0E0,-0E0,-3.5568026E-3],"categories":[],"categories_nodes":[],"categories_segments":[],"categories_sizes":[],"default_left":[0,0,0,0,0,0,0,0,0,0,0,0,0,0,0,0,0,0,0,0,0],"id":53,"left_children":[1,3,-1,5,7,9,11,13,-1,-1,-1,15,17,19,-1,-1,-1,-1,-1,-1,-1],"loss_changes":[4.7057104E0,2.0333347E0,0E0,5.775773E-1,1.2957108E0,3.2097065E-1,7.236553E-1,4.1541398E-2,0E0,0E0,0E0,3.4618247E-1,3.1385504E-2,1.0184489E-2,0E0,0E0,0E0,0E0,0E0,0E0,0E0],"parents":[2147483647,0,0,1,1,3,3,4,4,5,5,6,6,7,7,11,11,12,12,13,13],"right_children":[2,4,-1,6,8,10,12,14,-1,-1,-1,16,18,20,-1,-1,-1,-1,-1,-1,-1],"split_conditions":[1E0,1E0,-3.6298305E-2,8E1,1E0,2E0,1E0,9.2E1,4.771733E-2,-0E0,-3.0645425E-2,6.4E1,6.9E1,5.7E1,9.02214E-3,3.638104E-2,-0E0,-6.356742E-3,-0E0,-0E0,-3.5568026E-3],"split_indices":[14,7,0,9,0,3,4,9,0,0,0,10,10,10,0,0,0,0,0,0,0],"split_type":[0,0,0,0,0,0,0,0,0,0,0,0,0,0,0,0,0,0,0,0,0],"sum_hessian":[8.2520676E1,6.110999E1,2.1410688E1,2.6081722E1,3.5028267E1,1.1420402E1,1.4661321E1,1.52875395E1,1.9740728E1,4.610758E0,6.8096433E0,7.871038E0,6.7902827E0,1.2184111E1,3.1034284E0,6.620826E0,1.250212E0,5.76712E0,1.0231626E0,6.133668E0,6.0504427E0],"tree_param":{"num_deleted":"0","num_feature":"15","num_nodes":"21","size_leaf_vector":"1"}},{"base_weights":[-0E0,3.3164895E-1,-2.8875992E-1,4.1653356E-1,-0E0,-0E0,-3.7646124E-1,4.2759236E-2,-0E0,1.1200366E-2,-0E0,-0E0,-3.974426E-1,-0E0,-4.1949803E-1,-0E0,-4.4062804E-2],"categories":[],"categories_nodes":[],"categories_segments":[],"categories_sizes":[],"default_left":[0,0,0,0,0,0,0,0,0,0,0,0,0,0,0,0,0],"id":54,"left_children":[1,3,5,7,-1,9,11,-1,-1,-1,-1,-1,13,-1,15,-1,-1],"loss_changes":[7.064776E0,1.3947494E0,1.7372468E0,2.9215813E-3,0E0,7.415642E-2,4.0366983E-1,0E0,0E0,0E0,0E0,0E0,3.83039E-1,0E0,3.0631685E-1,0E0,0E0],"parents":[2147483647,0,0,1,1,2,2,3,3,5,5,6,6,12,12,14,14],"right_children":[2,4,6,8,-1,10,12,-1,-1,-1,-1,-1,14,-1,16,-1,-1],"split_conditions":[1.8E1,7.1E1,1.3E1,5E0,-0E0,1E0,7E0,4.2759236E-2,-0E0,1.1200366E-2,-0E0,-0E0,1E0,-0E0,1.1E1,-0E0,-4.4062804E-2],"split_indices":[10,9,8,1,0,0,9,0,0,0,0,0,1,0,11,0,0],"split_type":[0,0,0,0,0,0,0,0,0,0,0,0,0,0,0,0,0],"sum_hessian":[7.044572E1,3.0219542E1,4.0226177E1,2.6464579E1,3.7549648E0,5.12451E0,3.510167E1,2.502724E1,1.4373367E0,3.9113185E0,1.2131913E0,1.2583586E0,3.3843307E1,1.4932714E0,3.2350037E1,1.6377696E0,3.0712269E1],"tree_param":{"num_deleted":"0","num_feature":"15","num_nodes":"17","size_leaf_vector":"1"}},{"base_weights":[-0E0,-1.3173337E-1,6.4258404E-2,-0E0,-2.953017E-1,1.8879674E-1,-1.8467723E-1,1.9682981E-2,-0E0,-3.5392663E-1,-0E0,2.9331338E-1,-2.4211263E-2,-0E0,-2.5746357E-1,-9.101982E-3,-0E0,-3.8645208E-2,-0E0,3.2803214E-1,-0E0,-0E0,-1.226758E-2,-0E0,-3.1888497E-1,-0E0,3.6472183E-2,7.791143E-3,-0E0,-3.4417793E-2,-0E0],"categories":[],"categories_nodes":[],"categories_segments":[],"categories_sizes":[],"default_left":[0,0,0,0,0,0,0,0,0,0,0,0,0,0,0,0,0,0,0,0,0,0,0,0,0,0,0,0,0,0,0],"id":55,"left_children":[1,3,5,7,9,11,13,-1,15,17,-1,19,21,-1,23,-1,-1,-1,-1,25,-1,27,-1,-1,29,-1,-1,-1,-1,-1,-1],"loss_changes":[7.588192E-1,1.1143788E0,2.1695123E0,2.1915059E-1,3.4039104E-1,1.6947609E0,4.2274678E-1,0E0,5.5148575E-2,2.2072291E-1,0E0,6.593518E-1,1.0491765E-1,0E0,4.5031548E-1,0E0,0E0,0E0,0E0,7.0624256E-1,0E0,2.7128326E-2,0E0,0E0,1.1544287E-1,0E0,0E0,0E0,0E0,0E0,0E0],"parents":[2147483647,0,0,1,1,2,2,3,3,4,4,5,5,6,6,8,8,9,9,11,11,12,12,14,14,19,19,21,21,24,24],"right_children":[2,4,6,8,10,12,14,-1,16,18,-1,20,22,-1,24,-1,-1,-1,-1,26,-1,28,-1,-1,30,-1,-1,-1,-1,-1,-1],"split_conditions":[1.6E1,1E0,8.8E1,1E0,4.1E1,8E0,3.6E1,1.9682981E-2,5E0,5E0,-0E0,8.6E1,2.8E1,-0E0,2.1E1,-9.101982E-3,-0E0,-3.8645208E-2,-0E0,1.1E1,-0E0,1E0,-1.226758E-2,-0E0,8.5E1,-0E0,3.6472183E-2,7.791143E-3,-0E0,-3.4417793E-2,-0E0],"split_indices":[10,14,9,13,9,1,8,0,1,1,0,10,8,0,10,0,0,0,0,8,0,14,0,0,10,0,0,0,0,0,0],"split_type":[0,0,0,0,0,0,0,0,0,0,0,0,0,0,0,0,0,0,0,0,0,0,0,0,0,0,0,0,0,0,0],"sum_hessian":[9.113876E1,2.5674137E1,6.546463E1,9.387778E0,1.628636E1,4.931202E1,1.6152607E1,3.6566708E0,5.7311077E0,1.3447514E1,2.8388462E0,3.887334E1,1.0438679E1,2.435406E0,1.3717201E1,4.6567526E0,1.0743552E0,1.2434617E1,1.0128961E0,3.6806694E1,2.0666468E0,4.9826083E0,5.4560704E0,1.0431528E0,1.2674047E1,2.1056914E0,3.4701004E1,2.4691057E0,2.5135028E0,1.1571106E1,1.1029418E0],"tree_param":{"num_deleted":"0","num_feature":"15","num_nodes":"31","size_leaf_vector":"1"}},{"base_weights":[-7.151719E-5,-2.9808238E-1,1.4440344E-1,-3.957805E-1,2.9921278E-3,-0E0,1.9928885E-1,-4.4245165E-2,-0E0,-0E0,2.4133956E-1,2.6561818E-1,-0E0,2.741896E-2,-0E0],"categories":[],"categories_nodes":[],"categories_segments":[],"categories_sizes":[],"default_left":[0,0,0,0,0,0,0,0,0,0,0,0,0,0,0],"id":56,"left_children":[1,3,5,7,-1,-1,9,-1,-1,-1,11,13,-1,-1,-1],"loss_changes":[3.7695956E0,1.7416165E0,5.575E-1,4.1913652E-1,0E0,0E0,5.2695894E-1,0E0,0E0,0E0,3.4618354E-1,7.073569E-2,0E0,0E0,0E0],"parents":[2147483647,0,0,1,1,2,2,3,3,6,6,10,10,11,11],"right_children":[2,4,6,8,-1,-1,10,-1,-1,-1,12,14,-1,-1,-1],"split_conditions":[5E1,9.6E1,2.3E1,2E0,2.9921278E-3,-0E0,1.5E1,-4.4245165E-2,-0E0,-0E0,9.1E1,2E0,-0E0,2.741896E-2,-0E0],"split_indices":[8,9,10,4,0,0,11,0,0,0,11,4,0,0,0],"split_type":[0,0,0,0,0,0,0,0,0,0,0,0,0,0,0],"sum_hessian":[7.6414604E1,2.8775572E1,4.7639038E1,2.655131E1,2.224262E0,9.539604E0,3.8099434E1,2.298667E1,3.564639E0,3.709053E0,3.439038E1,3.2948654E1,1.4417241E0,3.1738644E1,1.2100116E0],"tree_param":{"num_deleted":"0","num_feature":"15","num_nodes":"15","size_leaf_vector":"1"}},{"base_weights":[-0E0,-3.9155796E-1,3.0463764E-1,-0E0,-4.1616544E-2,3.6141004E-2,-0E0],"categories":[],"categories_nodes":[],"categories_segments":[],"categories_sizes":[],"default_left":[0,0,0,0,0,0,0],"id":57,"left_children":[1,3,5,-1,-1,-1,-1],"loss_changes":[8.201509E0,4.2837858E-1,1.1572657E0,0E0,0E0,0E0,0E0],"parents":[2147483647,0,0,1,1,2,2],"right_children":[2,4,6,-1,-1,-1,-1],"split_conditions":[1E0,7E0,7.4E1,-0E0,-4.1616544E-2,3.6141004E-2,-0E0],"split_indices":[14,8,9,0,0,0,0],"split_type":[0,0,0,0,0,0,0],"sum_hessian":[6.4530045E1,2.8433523E1,3.609652E1,1.0191969E0,2.7414328E1,3.392772E1,2.168798E0],"tree_param":{"num_deleted":"0","num_feature":"15","num_nodes":"7","size_leaf_vector":"1"}},{"base_weights":[3.195588E-2,-1.6042548E-1,1.0155732E-1,-2.946811E-2,-0E0,1.8835741E-1,-6.878307E-2,3.5058018E-3,-0E0,3.0575603E-1,-0E0,-2.1816356E-1,-0E0,-0E0,3.6796406E-1,1.0066974E-1,-8.7722644E-2,-0E0,-2.6970385E-2,1.0976091E-2,-0E0,3.963245E-2,-0E0,-0E0,2.336107E-2,-0E0,-1.8205963E-2,-9.4912894E-4,-0E0],"categories":[],"categories_nodes":[],"categories_segments":[],"categories_sizes":[],"default_left":[0,0,0,0,0,0,0,0,0,0,0,0,0,0,0,0,0,0,0,0,0,0,0,0,0,0,0,0,0],"id":58,"left_children":[1,3,5,-1,7,9,11,-1,-1,13,15,17,19,-1,21,23,25,-1,-1,-1,27,-1,-1,-1,-1,-1,-1,-1,-1],"loss_changes":[1.1402549E0,6.728343E-1,1.3896778E0,0E0,5.9226374E-3,1.3046122E0,3.9140105E-1,0E0,0E0,1.2159717E0,2.3345724E-1,1.3199753E-1,4.8688646E-2,0E0,4.5044708E-1,3.4388852E-1,3.2673192E-1,0E0,0E0,0E0,7.2402094E-4,0E0,0E0,0E0,0E0,0E0,0E0,0E0,0E0],"parents":[2147483647,0,0,1,1,2,2,4,4,5,5,6,6,9,9,10,10,11,11,12,12,14,14,15,15,16,16,20,20],"right_children":[2,4,6,-1,8,10,12,-1,-1,14,16,18,20,-1,22,24,26,-1,-1,-1,28,-1,-1,-1,-1,-1,-1,-1,-1],"split_conditions":[1.5E1,1E0,8.9E1,-2.946811E-2,1.3E1,1E0,4E0,3.5058018E-3,-0E0,1E1,6.2E1,5E1,1E0,-0E0,1E1,3E1,1.3E1,-0E0,-2.6970385E-2,1.0976091E-2,8.5E1,3.963245E-2,-0E0,-0E0,2.336107E-2,-0E0,-1.8205963E-2,-9.4912894E-4,-0E0],"split_indices":[8,0,9,0,8,0,1,0,0,11,8,8,12,0,1,9,11,0,0,0,11,0,0,0,0,0,0,0,0],"split_type":[0,0,0,0,0,0,0,0,0,0,0,0,0,0,0,0,0,0,0,0,0,0,0,0,0,0,0,0,0],"sum_hessian":[8.95164E1,1.54545355E1,7.4061874E1,1.0921343E1,4.533193E0,5.6699333E1,1.736254E1,2.8188171E0,1.714376E0,3.423163E1,2.2467703E1,8.148208E0,9.214332E0,2.2343435E0,3.1997286E1,1.0209795E1,1.2257907E1,1.6933889E0,6.4548187E0,2.0414045E0,7.172927E0,3.0173529E1,1.8237566E0,3.6411014E0,6.5686936E0,1.0902838E0,1.11676235E1,6.0371256E0,1.1358011E0],"tree_param":{"num_deleted":"0","num_feature":"15","num_nodes":"29","size_leaf_vector":"1"}},{"base_weights":[-9.971849E-3,8.6896755E-2,-3.4731823E-1,-0E0,2.1356013E-2,-3.759584E-2,-0E0,-1.11557685E-1,4.401422E-2,-2.4024665E-1,-0E0,2.1371408E-1,-0E0,-2.6207922E-2,-0E0,2.9319247E-2,-0E0],"categories":[],"categories_nodes":[],"categories_segments":[],"categories_sizes":[],"default_left":[0,0,0,0,0,0,0,0,0,0,0,0,0,0,0,0,0],"id":59,"left_children":[1,3,5,7,-1,-1,-1,9,11,13,-1,15,-1,-1,-1,-1,-1],"loss_changes":[3.09043E0,9.399998E-1,1.645863E-1,2.5063807E-1,0E0,0E0,0E0,3.0130488E-1,4.485727E-1,1.5207708E-2,0E0,2.862817E-1,0E0,0E0,0E0,0E0,0E0],"parents":[2147483647,0,0,1,1,2,2,3,3,7,7,8,8,9,9,11,11],"right_children":[2,4,6,8,-1,-1,-1,10,12,14,-1,16,-1,-1,-1,-1,-1],"split_conditions":[1E0,1E0,8E0,6.8E1,2.1356013E-2,-3.759584E-2,-0E0,1E0,8.5E1,4.1E1,-0E0,1E1,-0E0,-2.6207922E-2,-0E0,2.9319247E-2,-0E0],"split_indices":[14,7,1,11,0,0,0,12,11,11,0,5,0,0,0,0,0],"split_type":[0,0,0,0,0,0,0,0,0,0,0,0,0,0,0,0,0],"sum_hessian":[7.478574E1,5.464942E1,2.0136316E1,2.6659851E1,2.7989573E1,1.8056566E1,2.0797515E0,1.6199913E1,1.0459938E1,7.144474E0,9.055439E0,8.349734E0,2.110204E0,5.905781E0,1.2386932E0,6.829412E0,1.5203218E0],"tree_param":{"num_deleted":"0","num_feature":"15","num_nodes":"17","size_leaf_vector":"1"}},{"base_weights":[-0E0,-3.440228E-1,2.967002E-1,-0E0,-3.904816E-2,3.9928015E-2,-8.6744194E-4,-0E0,-6.323054E-3],"categories":[],"categories_nodes":[],"categories_segments":[],"categories_sizes":[],"default_left":[0,0,0,0,0,0,0,0,0],"id":60,"left_children":[1,3,5,-1,-1,-1,7,-1,-1],"loss_changes":[7.5651865E0,7.35626E-1,2.1150053E0,0E0,0E0,0E0,2.2184767E-2,0E0,0E0],"parents":[2147483647,0,0,1,1,2,2,6,6],"right_children":[2,4,6,-1,-1,-1,8,-1,-1],"split_conditions":[1E0,1.3E1,5.1E1,-0E0,-3.904816E-2,3.9928015E-2,2E0,-0E0,-6.323054E-3],"split_indices":[14,8,8,0,0,0,3,0,0],"split_type":[0,0,0,0,0,0,0,0,0],"sum_hessian":[7.0978874E1,2.9817236E1,4.116164E1,2.2961755E0,2.752106E1,3.5099415E1,6.062222E0,2.5118785E0,3.5503438E0],"tree_param":{"num_deleted":"0","num_feature":"15","num_nodes":"9","size_leaf_vector":"1"}},{"base_weights":[2.0311698E-3,6.651118E-2,-1.4073884E-1,-8.80506E-2,1.7291883E-1,-0E0,-2.7540553E-1,4.113458E-2,-2.5925968E-2,-0E0,2.2577326E-1,-0E0,6.732231E-3,-0E0,-2.9542518E-1,-0E0,1.112064E-1,2.6130858E-1,-0E0,1.5644947E-3,-0E0,-3.1328212E-2,-0E0,-0E0,1.8386021E-2,-0E0,3.0196348E-2],"categories":[],"categories_nodes":[],"categories_segments":[],"categories_sizes":[],"default_left":[0,0,0,0,0,0,0,0,0,0,0,0,0,0,0,0,0,0,0,0,0,0,0,0,0,0,0],"id":61,"left_children":[1,3,5,7,9,11,13,15,-1,-1,17,-1,19,-1,21,-1,23,25,-1,-1,-1,-1,-1,-1,-1,-1,-1],"loss_changes":[7.0073426E-1,1.4033011E0,6.4838713E-1,9.770978E-1,7.7026796E-1,2.779107E-4,3.641033E-2,6.1487064E-2,0E0,0E0,6.1982584E-1,0E0,7.356714E-4,0E0,1.9282818E-2,0E0,8.85235E-2,4.9784422E-1,0E0,0E0,0E0,0E0,0E0,0E0,0E0,0E0,0E0],"parents":[2147483647,0,0,1,1,2,2,3,3,4,4,5,5,6,6,7,7,10,10,12,12,14,14,16,16,17,17],"right_children":[2,4,6,8,10,12,14,16,-1,-1,18,-1,20,-1,22,-1,24,26,-1,-1,-1,-1,-1,-1,-1,-1,-1],"split_conditions":[8.9E1,1.8E1,1E0,1E0,1E0,9E1,1E0,4E0,-2.5925968E-2,-0E0,8.6E1,-0E0,1E0,-0E0,8E0,-0E0,1E0,1.5E1,-0E0,1.5644947E-3,-0E0,-3.1328212E-2,-0E0,-0E0,1.8386021E-2,-0E0,3.0196348E-2],"split_indices":[9,10,12,14,5,9,5,10,0,0,10,0,13,0,5,0,2,9,0,0,0,0,0,0,0,0,0],"split_type":[0,0,0,0,0,0,0,0,0,0,0,0,0,0,0,0,0,0,0,0,0,0,0,0,0,0,0],"sum_hessian":[8.8211296E1,7.115292E1,1.7058367E1,2.1488838E1,4.966409E1,5.532875E0,1.1525492E1,6.455627E0,1.5033212E1,6.2469826E0,4.3417107E1,1.4010851E0,4.13179E0,1.3538266E0,1.0171665E1,2.326795E0,4.128832E0,4.09819E1,2.435206E0,2.141053E0,1.9907372E0,9.020123E0,1.1515428E0,1.2680135E0,2.8608184E0,5.334731E0,3.5647167E1],"tree_param":{"num_deleted":"0","num_feature":"15","num_nodes":"27","size_leaf_vector":"1"}},{"base_weights":[-0E0,1.7144988E-1,-4.0406653E-1,-0E0,3.265387E-1,-0E0,-4.3687828E-2,-1.3060577E-1,8.043578E-2,1.5307032E-2,4.7729243E-2,-0E0,-3.052033E-2,-0E0,2.312554E-1,-0E0,6.3950635E-2,-0E0,2.4565856E-3,3.144058E-2,-0E0,9.145451E-3,-0E0],"categories":[],"categories_nodes":[],"categories_segments":[],"categories_sizes":[],"default_left":[0,0,0,0,0,0,0,0,0,0,0,0,0,0,0,0,0,0,0,0,0,0,0],"id":62,"left_children":[1,3,5,7,9,-1,-1,11,13,15,-1,17,-1,-1,19,-1,21,-1,-1,-1,-1,-1,-1],"loss_changes":[5.6259418E0,1.9846716E0,2.341845E-1,3.631956E-1,6.5086484E-1,0E0,0E0,7.1568334E-1,4.7731775E-1,4.8560023E-2,0E0,3.9037333E-3,0E0,0E0,2.3469776E-1,0E0,4.4705607E-2,0E0,0E0,0E0,0E0,0E0,0E0],"parents":[2147483647,0,0,1,1,2,2,3,3,4,4,7,7,8,8,9,9,11,11,14,14,16,16],"right_children":[2,4,6,8,10,-1,-1,12,14,16,-1,18,-1,-1,20,-1,22,-1,-1,-1,-1,-1,-1],"split_conditions":[1E0,1E0,1E0,8.8E1,1E0,-0E0,-4.3687828E-2,1E0,1.7E1,3E0,4.7729243E-2,4E0,-3.052033E-2,-0E0,1E0,-0E0,8.5E1,-0E0,2.4565856E-3,3.144058E-2,-0E0,9.145451E-3,-0E0],"split_indices":[14,7,5,9,0,0,0,2,10,5,0,1,0,0,0,0,10,0,0,0,0,0,0],"split_type":[0,0,0,0,0,0,0,0,0,0,0,0,0,0,0,0,0,0,0,0,0,0,0],"sum_hessian":[7.97365E1,5.8098713E1,2.1637789E1,2.4917578E1,3.3181137E1,2.190318E0,1.9447472E1,1.4632234E1,1.0285343E1,1.5875612E1,1.7305523E1,5.9032583E0,8.728975E0,1.8737392E0,8.411604E0,4.9777026E0,1.089791E1,1.4345686E0,4.46869E0,6.007007E0,2.404597E0,9.651702E0,1.2462076E0],"tree_param":{"num_deleted":"0","num_feature":"15","num_nodes":"23","size_leaf_vector":"1"}},{"base_weights":[-0E0,-3.4611994E-1,2.861646E-1,-0E0,-4.3850532E-1,3.7633523E-2,-0E0,-4.691501E-2,-0E0],"categories":[],"categories_nodes":[],"categories_segments":[],"categories_sizes":[],"default_left":[0,0,0,0,0,0,0,0,0],"id":63,"left_children":[1,3,5,-1,7,-1,-1,-1,-1],"loss_changes":[6.7674856E0,1.6696866E0,1.4549809E0,0E0,3.06345E-1,0E0,0E0,0E0,0E0],"parents":[2147483647,0,0,1,1,2,2,4,4],"right_children":[2,4,6,-1,8,-1,-1,-1,-1],"split_conditions":[1E0,4E0,5.1E1,-0E0,2E0,3.7633523E-2,-0E0,-4.691501E-2,-0E0],"split_indices":[14,10,8,0,4,0,0,0,0],"split_type":[0,0,0,0,0,0,0,0,0],"sum_hessian":[6.4408104E1,2.8745703E1,3.56624E1,2.9071393E0,2.5838564E1,3.0049845E1,5.6125536E0,2.3712358E1,2.1262052E0],"tree_param":{"num_deleted":"0","num_feature":"15","num_nodes":"9","size_leaf_vector":"1"}},{"base_weights":[-1.9734541E-3,-1.1792055E-1,1.8307032E-2,-0E0,-2.0490852E-1,9.0565056E-2,-7.904443E-2,1.8244798E-3,-0E0,-2.8452983E-2,-0E0,2.023122E-1,-0E0,-0E0,-1.4713E-1,-2.5113267E-3,-0E0,-0E0,2.9227927E-1,-4.8514225E-2,-0E0,-0E0,-1.9870736E-1,-0E0,3.1832747E-2,-0E0,-1.799749E-2,3.8084972E-3,-0E0,-0E0,-2.4174618E-2],"categories":[],"categories_nodes":[],"categories_segments":[],"categories_sizes":[],"default_left":[0,0,0,0,0,0,0,0,0,0,0,0,0,0,0,0,0,0,0,0,0,0,0,0,0,0,0,0,0,0,0],"id":64,"left_children":[1,3,5,7,9,11,13,-1,15,-1,-1,17,19,-1,21,-1,-1,-1,23,25,27,-1,29,-1,-1,-1,-1,-1,-1,-1,-1],"loss_changes":[4.128988E-1,3.645031E-1,4.7931084E-1,2.0912166E-3,4.487672E-1,8.2949257E-1,1.708277E-1,0E0,4.2388663E-3,0E0,0E0,9.578055E-1,3.488517E-2,0E0,1.5572616E-1,0E0,0E0,0E0,1.6744328E-1,2.523929E-1,6.439828E-3,0E0,1.2919015E-1,0E0,0E0,0E0,0E0,0E0,0E0,0E0,0E0],"parents":[2147483647,0,0,1,1,2,2,3,3,4,4,5,5,6,6,8,8,11,11,12,12,14,14,18,18,19,19,20,20,22,22],"right_children":[2,4,6,8,10,12,14,-1,16,-1,-1,18,20,-1,22,-1,-1,-1,24,26,28,-1,30,-1,-1,-1,-1,-1,-1,-1,-1],"split_conditions":[1.6E1,1E0,8.8E1,6.8E1,4.1E1,1E0,1E0,1.8244798E-3,5E0,-2.8452983E-2,-0E0,1.3E1,8E1,-0E0,1E0,-2.5113267E-3,-0E0,-0E0,1E0,1E0,5E0,-0E0,8.9E1,-0E0,3.1832747E-2,-0E0,-1.799749E-2,3.8084972E-3,-0E0,-0E0,-2.4174618E-2],"split_indices":[10,14,9,9,9,0,12,0,3,0,0,9,9,0,5,0,0,0,5,7,5,0,9,0,0,0,0,0,0,0,0],"split_type":[0,0,0,0,0,0,0,0,0,0,0,0,0,0,0,0,0,0,0,0,0,0,0,0,0,0,0,0,0,0,0],"sum_hessian":[8.7031456E1,2.6204386E1,6.0827072E1,1.0182541E1,1.6021845E1,4.6784985E1,1.4042087E1,4.282332E0,5.900209E0,1.2890079E1,3.1317668E0,2.8042063E1,1.8742922E1,3.5204415E0,1.0521646E1,4.721146E0,1.1790631E0,4.4362316E0,2.3605831E1,1.2821858E1,5.921064E0,1.7127464E0,8.808899E0,2.3666923E0,2.123914E1,5.952779E0,6.86908E0,2.4398365E0,3.4812274E0,1.2954863E0,7.5134125E0],"tree_param":{"num_deleted":"0","num_feature":"15","num_nodes":"31","size_leaf_vector":"1"}},{"base_weights":[-0E0,-2.1135096E-1,1.50567E-1,-2.8321278E-1,-0E0,-5.7427816E-2,2.5363174E-1,-2.978822E-1,-0E0,-0E0,-1.4136249E-2,-0E0,3.244804E-1,-3.8328994E-2,-0E0,5.1452257E-2,-0E0,-0E0,-8.01066E-3,-3.546685E-3,2.6508844E-2],"categories":[],"categories_nodes":[],"categories_segments":[],"categories_sizes":[],"default_left":[0,0,0,0,0,0,0,0,0,0,0,0,0,0,0,0,0,0,0,0,0],"id":65,"left_children":[1,3,5,7,-1,9,11,13,-1,-1,-1,-1,15,-1,17,-1,19,-1,-1,-1,-1],"loss_changes":[2.562278E0,3.8456285E-1,1.4410002E0,9.2929006E-2,0E0,1.0423486E-1,1.1292179E0,1.0855222E-1,0E0,0E0,0E0,0E0,1.1237154E0,0E0,4.4109162E-2,0E0,6.346307E-1,0E0,0E0,0E0,0E0],"parents":[2147483647,0,0,1,1,2,2,3,3,5,5,6,6,7,7,12,12,14,14,16,16],"right_children":[2,4,6,8,-1,10,12,14,-1,-1,-1,-1,16,-1,18,-1,20,-1,-1,-1,-1],"split_conditions":[1E0,5.3E1,3.3E1,5.1E1,-0E0,7E0,1.5E1,1E0,-0E0,-0E0,-1.4136249E-2,-0E0,5.8E1,-3.8328994E-2,2.7E1,5.1452257E-2,8E1,-0E0,-8.01066E-3,-3.546685E-3,2.6508844E-2],"split_indices":[12,11,8,10,0,5,11,0,0,0,0,0,10,0,8,0,10,0,0,0,0],"split_type":[0,0,0,0,0,0,0,0,0,0,0,0,0,0,0,0,0,0,0,0,0],"sum_hessian":[7.6781784E1,3.1225487E1,4.5556297E1,2.129799E1,9.927497E0,8.958163E0,3.6598133E1,2.0107117E1,1.1908733E0,3.9335976E0,5.0245657E0,4.290181E0,3.2307953E1,1.2091516E1,8.015602E0,1.5889373E1,1.6418577E1,3.1418757E0,4.8737264E0,9.5950575E0,6.82352E0],"tree_param":{"num_deleted":"0","num_feature":"15","num_nodes":"21","size_leaf_vector":"1"}},{"base_weights":[-0E0,3.0339757E-1,-2.1643423E-1,3.4108114E-1,-0E0,1.1927936E-2,-3.557576E-2,-0E0,3.577527E-2,2.1425739E-2,-0E0],"categories":[],"categories_nodes":[],"categories_segments":[],"categories_sizes":[],"default_left":[0,0,0,0,0,0,0,0,0,0,0],"id":66,"left_children":[1,3,5,7,-1,9,-1,-1,-1,-1,-1],"loss_changes":[4.557268E0,5.813761E-1,1.9359494E0,1.5526462E-1,0E0,3.6268747E-1,0E0,0E0,0E0,0E0,0E0],"parents":[2147483647,0,0,1,1,2,2,3,3,5,5],"right_children":[2,4,6,8,-1,10,-1,-1,-1,-1,-1],"split_conditions":[1.8E1,7.1E1,2.3E1,3E0,-0E0,1E0,-3.557576E-2,-0E0,3.577527E-2,2.1425739E-2,-0E0],"split_indices":[10,8,8,1,0,0,0,0,0,0,0],"split_type":[0,0,0,0,0,0,0,0,0,0,0],"sum_hessian":[6.464583E1,2.7678139E1,3.6967686E1,2.6479929E1,1.1982096E0,9.261319E0,2.7706367E1,1.3793914E0,2.5100538E1,5.9355183E0,3.325801E0],"tree_param":{"num_deleted":"0","num_feature":"15","num_nodes":"11","size_leaf_vector":"1"}},{"base_weights":[1.5942417E-2,-4.6928704E-2,1.0275868E-1,-9.916064E-2,-0E0,1.7925788E-1,-2.959735E-2,-2.6713973E-1,-0E0,4.1535505E-4,-0E0,3.078663E-1,-0E0,-1.720159E-2,-0E0,-0E0,-2.9670585E-2,4.8407137E-1,-0E0,-1.23543814E-1,2.1926044E-2,1.0176915E-3,-0E0,5.169797E-2,-0E0,7.841519E-3,-0E0,-1.7034952E-2,-0E0],"categories":[],"categories_nodes":[],"categories_segments":[],"categories_sizes":[],"default_left":[0,0,0,0,0,0,0,0,0,0,0,0,0,0,0,0,0,0,0,0,0,0,0,0,0,0,0,0,0],"id":67,"left_children":[1,3,5,7,9,11,13,15,-1,-1,-1,17,19,-1,21,-1,-1,23,25,27,-1,-1,-1,-1,-1,-1,-1,-1,-1],"loss_changes":[6.0781926E-1,2.4312744E-1,8.306265E-1,5.187051E-1,6.967029E-5,1.1320429E0,1.8877211E-1,1.00272655E-1,0E0,0E0,0E0,7.2707033E-1,4.97159E-1,0E0,4.5375485E-4,0E0,0E0,1.077106E-1,6.460724E-2,1.6580431E-1,0E0,0E0,0E0,0E0,0E0,0E0,0E0,0E0,0E0],"parents":[2147483647,0,0,1,1,2,2,3,3,4,4,5,5,6,6,7,7,11,11,12,12,14,14,17,17,18,18,19,19],"right_children":[2,4,6,8,10,12,14,16,-1,-1,-1,18,20,-1,22,-1,-1,24,26,28,-1,-1,-1,-1,-1,-1,-1,-1,-1],"split_conditions":[1E0,7E0,8.9E1,2.2E1,2.2E1,1E0,4E0,4E0,-0E0,4.1535505E-4,-0E0,1E0,7.4E1,-1.720159E-2,7.1E1,-0E0,-2.9670585E-2,8.1E1,7E1,7.1E1,2.1926044E-2,1.0176915E-3,-0E0,5.169797E-2,-0E0,7.841519E-3,-0E0,-1.7034952E-2,-0E0],"split_indices":[2,1,9,11,11,14,1,9,0,0,0,7,9,0,11,0,0,9,11,11,0,0,0,0,0,0,0,0,0],"split_type":[0,0,0,0,0,0,0,0,0,0,0,0,0,0,0,0,0,0,0,0,0,0,0,0,0,0,0,0,0],"sum_hessian":[8.713405E1,3.7708103E1,4.942594E1,3.1619684E1,6.0884185E0,4.0449158E1,8.976786E0,9.9007635E0,2.1718922E1,2.0383935E0,4.050025E0,2.4335032E1,1.6114124E1,4.7046776E0,4.272108E0,1.114582E0,8.786181E0,1.1755029E1,1.2580004E1,1.2318827E1,3.7952976E0,2.38116E0,1.8909478E0,1.0462617E1,1.2924117E0,8.50705E0,4.072954E0,1.1244914E1,1.0739119E0],"tree_param":{"num_deleted":"0","num_feature":"15","num_nodes":"29","size_leaf_vector":"1"}},{"base_weights":[-3.1124812E-2,-3.1220797E-1,1.2264209E-1,-3.7754548E-1,-0E0,-1.617779E-2,1.8957728E-1,-4.277193E-2,-0E0,-1.2929699E-2,-0E0,5.1415446E-3,3.3061782E-1,-9.54209E-2,1.4751667E-1,3.7257725E-1,-0E0,-1.4228091E-2,-0E0,3.0842623E-2,-0E0,4.0679865E-2,-0E0],"categories":[],"categories_nodes":[],"categories_segments":[],"categories_sizes":[],"default_left":[0,0,0,0,0,0,0,0,0,0,0,0,0,0,0,0,0,0,0,0,0,0,0],"id":68,"left_children":[1,3,5,7,-1,9,11,-1,-1,-1,-1,13,15,17,19,21,-1,-1,-1,-1,-1,-1,-1],"loss_changes":[3.7973864E0,1.2313044E0,7.8791326E-1,1.8977499E-1,0E0,9.694167E-2,4.036125E-1,0E0,0E0,0E0,0E0,5.066505E-1,2.8332174E-1,7.010501E-2,9.6571517E-1,1.7657757E-1,0E0,0E0,0E0,0E0,0E0,0E0,0E0],"parents":[2147483647,0,0,1,1,2,2,3,3,5,5,6,6,11,11,12,12,13,13,14,14,15,15],"right_children":[2,4,6,8,-1,10,12,-1,-1,-1,-1,14,16,18,20,22,-1,-1,-1,-1,-1,-1,-1],"split_conditions":[5.9E1,9.5E1,1.9E1,5E1,-0E0,9.1E1,8.6E1,-4.277193E-2,-0E0,-1.2929699E-2,-0E0,1E0,9.2E1,8E0,8.1E1,8.6E1,-0E0,-1.4228091E-2,-0E0,3.0842623E-2,-0E0,4.0679865E-2,-0E0],"split_indices":[8,9,11,8,0,9,9,0,0,0,0,7,8,1,9,11,0,0,0,0,0,0,0],"split_type":[0,0,0,0,0,0,0,0,0,0,0,0,0,0,0,0,0,0,0,0,0,0,0],"sum_hessian":[7.531549E1,3.0502808E1,4.4812683E1,2.8864727E1,1.6380801E0,5.3513126E0,3.946137E1,2.3085585E1,5.779143E0,3.9138277E0,1.437485E0,2.4143133E1,1.5318236E1,6.3032236E0,1.7839909E1,1.3678164E1,1.640072E0,5.1975946E0,1.1056291E0,1.2690452E1,5.1494575E0,1.2218337E1,1.4598267E0],"tree_param":{"num_deleted":"0","num_feature":"15","num_nodes":"23","size_leaf_vector":"1"}},{"base_weights":[-0E0,1.5578656E-1,-3.7564826E-1,2.7943058E-2,-0E0,-0E0,-4.259631E-2,1.5137728E-1,-1.3406794E-1,-0E0,1.8392748E-1,-0E0,-2.735556E-1,-0E0,2.5345696E-2,-2.9818073E-2,-0E0],"categories":[],"categories_nodes":[],"categories_segments":[],"categories_sizes":[],"default_left":[0,0,0,0,0,0,0,0,0,0,0,0,0,0,0,0,0],"id":69,"left_children":[1,3,5,-1,7,-1,-1,9,11,-1,13,-1,15,-1,-1,-1,-1],"loss_changes":[4.165038E0,9.930972E-1,6.3268995E-1,0E0,5.008064E-1,0E0,0E0,8.3063364E-2,5.893302E-1,0E0,8.9200705E-2,0E0,3.3113778E-2,0E0,0E0,0E0,0E0],"parents":[2147483647,0,0,1,1,2,2,4,4,7,7,8,8,10,10,12,12],"right_children":[2,4,6,-1,8,-1,-1,10,12,-1,14,-1,16,-1,-1,-1,-1],"split_conditions":[7.5E1,2.1E1,4E0,2.7943058E-2,4E0,-0E0,-4.259631E-2,2.8E1,1.9E1,-0E0,3E1,-0E0,9E0,-0E0,2.5345696E-2,-2.9818073E-2,-0E0],"split_indices":[9,8,11,0,1,0,0,8,11,0,11,0,3,0,0,0,0],"split_type":[0,0,0,0,0,0,0,0,0,0,0,0,0,0,0,0,0],"sum_hessian":[6.584045E1,4.67004E1,1.9140047E1,2.5855906E1,2.0844496E1,1.2122198E0,1.7927828E1,8.979085E0,1.1865411E1,1.0867801E0,7.892305E0,2.6597445E0,9.205667E0,3.2944243E0,4.597881E0,7.803698E0,1.4019682E0],"tree_param":{"num_deleted":"0","num_feature":"15","num_nodes":"17","size_leaf_vector":"1"}},{"base_weights":[6.475281E-2,-3.8854767E-2,1.5052819E-1,1.0670308E-1,-2.006076E-1,-0E0,2.3368736E-1,2.0009724E-2,-0E0,-2.2722939E-1,-0E0,6.7823276E-2,-1.8968346E-2,3.1856737E-1,-0E0,-2.3922538E-2,-0E0,-0E0,1.647423E-2,-1.00468636E-1,-0E0,3.6017177E-1,-0E0,-1.8547883E-2,-0E0,3.802727E-2,-0E0],"categories":[],"categories_nodes":[],"categories_segments":[],"categories_sizes":[],"default_left":[0,0,0,0,0,0,0,0,0,0,0,0,0,0,0,0,0,0,0,0,0,0,0,0,0,0,0],"id":70,"left_children":[1,3,5,7,9,11,13,-1,-1,15,-1,17,19,21,-1,-1,-1,-1,-1,23,-1,25,-1,-1,-1,-1,-1],"loss_changes":[9.750202E-1,9.073219E-1,6.481124E-1,2.028242E-1,1.5766948E-1,4.4849474E-2,1.1167533E0,0E0,0E0,4.4124126E-2,0E0,1.2530318E-1,1.5240017E-1,6.801901E-1,0E0,0E0,0E0,0E0,0E0,2.8748316E-1,0E0,2.6485348E-1,0E0,0E0,0E0,0E0,0E0],"parents":[2147483647,0,0,1,1,2,2,3,3,4,4,5,5,6,6,9,9,11,11,12,12,13,13,19,19,21,21],"right_children":[2,4,6,8,10,12,14,-1,-1,16,-1,18,20,22,-1,-1,-1,-1,-1,24,-1,26,-1,-1,-1,-1,-1],"split_conditions":[3.8E1,1E0,1E0,3.9E1,3.3E1,1E0,8E1,2.0009724E-2,-0E0,2E0,-0E0,2.5E1,9.8E1,9.2E1,-0E0,-2.3922538E-2,-0E0,-0E0,1.647423E-2,1E0,-0E0,9E0,-0E0,-1.8547883E-2,-0E0,3.802727E-2,-0E0],"split_indices":[9,14,2,10,10,13,10,0,0,2,0,10,9,9,0,0,0,0,0,14,0,3,0,0,0,0,0],